%YAML:1.0
---
opencv_ml_svm:
   format: 3
   svmType: C_SVC
   kernel:
      type: LINEAR
   C: 1.
   term_criteria: { iterations:100 }
   var_count: 94
   class_count: 14
   class_labels: !!opencv-matrix
      rows: 14
      cols: 1
      dt: i
      data: [ 1, 2, 3, 4, 5, 6, 7, 8, 9, 10, 11, 12, 13, 14 ]
   sv_total: 91
   support_vectors:
      - [ -2.23115042e-01, -3.47285941e-02, -6.02083504e-02,
          -5.44935018e-02, -2.42124602e-01, -3.74496132e-02,
          -4.27502804e-02, -4.50813659e-02, -7.46332705e-02,
          -4.27502804e-02, -4.27502804e-02, -4.43374626e-02,
          -1.04071334e-01, -4.27502804e-02, -4.27502804e-02,
          -5.30855358e-02, -3.37708369e-02, -4.27502804e-02,
          -4.27502804e-02, -1.06156483e-01, -3.75290029e-03,
          8.14658999e-01, 6.01601899e-01, -1.96273699e-02,
          -2.86477301e-02, -3.83547246e-02, -8.79713520e-02,
          -3.92570123e-02, -1.35538289e-02, -2.85863243e-02,
          3.43920551e-02, -3.42961475e-02, -4.90958393e-02,
          -4.59138304e-02, -1.03938878e-01, -3.62599753e-02,
          -7.93308858e-03, -2.75028087e-02, 3.37019973e-02,
          -8.95416364e-03, 6.81966394e-02, -3.54883969e-02,
          -4.27179709e-02, -2.62017921e-02, -2.07355758e-03,
          -2.67728642e-02, 3.19579579e-02, 3.52757168e-04,
          1.14446133e-01, -1.91788021e-02, 3.13321240e-02,
          -2.99934465e-02, -5.87879913e-03, -2.62792744e-02,
          2.71893181e-02, 4.90778266e-03, 1.02922730e-01,
          -1.17598940e-02, 5.38855717e-02, -4.72020619e-02,
          -2.16700248e-02, -2.76855770e-02, 2.50696503e-02,
          3.06507689e-03, 1.27773628e-01, -1.09956088e-02,
          6.39082268e-02, -4.87374961e-02, -2.20658574e-02,
          -3.01057063e-02, 2.32818741e-02, 9.50536411e-03,
          1.62157923e-01, -1.01487059e-02, 7.42558390e-02,
          -4.10373099e-02, -2.05892269e-02, -2.96214689e-02,
          2.55782101e-02, 1.03368079e-02, 1.44406110e-01,
          -2.18556635e-02, 1.45892904e-04, -3.77544463e-02,
          -1.47432974e-02, -2.75689028e-02, 3.52496691e-02,
          3.12099401e-02, -2.72035927e-01, -3.20858113e-03,
          5.44853769e-02, 6.24249168e-02, 6.47475645e-02, 6.23767152e-02 ]
      - [ -1.29929572e-01, -1.09947436e-01, 3.08079123e-01,
          -8.91397074e-02, -3.08722612e-02, -1.31758362e-01,
          -1.00013185e-02, -7.40499515e-03, -2.49579735e-02,
          -7.37736793e-03, -6.43844204e-03, -6.91002747e-03,
          -1.51115907e-02, -6.45032665e-03, -6.43844204e-03,
          -1.30441431e-02, -6.67775096e-03, -6.48571504e-03,
          -6.43844204e-03, -3.62193696e-02, 3.87892127e-04,
          3.35576147e-01, 7.56010320e-03, 1.74714457e-02,
          -2.83044204e-02, 2.99217757e-02, -7.93940295e-03,
          -3.21084214e-03, 1.01192966e-02, 1.12706926e-02,
          1.32354535e-03, 1.36559615e-02, -3.07891183e-02,
          2.88290437e-02, -8.09886958e-03, -1.45897304e-03,
          1.13310898e-02, 9.89398360e-03, -1.99466292e-03,
          8.86466075e-03, -4.35928218e-02, 2.49613523e-02,
          -1.81058273e-02, 3.75301205e-03, 1.85795501e-02,
          1.25065669e-02, -6.01825130e-04, 4.64904821e-03,
          -5.52693307e-02, 2.11777501e-02, -2.92534214e-02,
          9.21945181e-03, 2.32329648e-02, 1.74702052e-02, 4.86574415e-03,
          3.98155721e-03, -6.37392700e-02, 1.77960675e-02,
          -4.29354124e-02, 1.26131698e-02, 2.82346830e-02,
          2.11617388e-02, 9.46824066e-03, 1.19416916e-03,
          -6.80243373e-02, 1.65741220e-02, -4.64612357e-02,
          1.36939678e-02, 2.89627537e-02, 2.07970031e-02, 9.84897185e-03,
          3.13150883e-03, -6.13676608e-02, 1.90598797e-02,
          -3.82382274e-02, 7.74976891e-03, 2.21654233e-02,
          1.84243508e-02, 8.72302055e-03, 9.87873785e-03,
          -4.40669879e-02, 2.44453978e-02, -2.19559055e-02,
          -2.16715067e-04, 1.38477534e-02, 1.49339791e-02,
          5.84188895e-03, -2.62395805e-03, 4.43375185e-02,
          -8.17539077e-03, -8.12000688e-03, -8.53272434e-03,
          -8.35201051e-03, -8.53341259e-03 ]
      - [ -1.15687549e-01, -8.92562121e-02, -1.05613470e-01,
          -4.77459617e-02, -1.74009204e-02, -3.30534540e-02,
          -3.62744518e-02, -3.65153030e-02, -3.41592580e-02,
          -3.62744518e-02, -3.62744518e-02, -3.67941037e-02,
          -4.58942205e-02, -3.62744518e-02, -3.62744518e-02,
          -1.18934987e-02, -8.28042105e-02, -3.62744518e-02,
          -3.62744518e-02, 7.77808875e-02, -1.24057673e-01,
          5.31377256e-01, 4.25638586e-01, -1.88534781e-02,
          2.19471082e-02, -2.48933956e-02, 2.69008707e-02,
          9.09777880e-02, -3.60518657e-02, 9.27001089e-02,
          -2.21136771e-02, -2.68768445e-02, -3.93510237e-02,
          -2.71769036e-02, 3.56243015e-03, 9.13021788e-02,
          -3.23500037e-02, 9.43844616e-02, -1.92414150e-02,
          -1.71855967e-02, -8.39540735e-03, -2.99291834e-02,
          -2.95128636e-02, 1.09608278e-01, -9.88187827e-03,
          1.01072632e-01, -1.46718044e-03, -1.98686644e-02,
          -4.54324931e-02, -4.92928885e-02, -1.50525883e-01,
          1.22286074e-01, 1.21006295e-02, 1.06371202e-01, 1.69477873e-02,
          -5.69786057e-02, -2.13954479e-01, -6.37392476e-02,
          -2.21560523e-01, 1.20068595e-01, 1.37317134e-02,
          1.07359983e-01, 2.00246163e-02, -4.52603400e-02,
          -1.67133763e-01, -6.16600886e-02, -2.11750537e-01,
          1.21439196e-01, 1.79186165e-02, 1.05033308e-01, 1.58498865e-02,
          -1.97251122e-02, -2.20032651e-02, -4.03038301e-02,
          -9.24786255e-02, 1.15334980e-01, -3.93782509e-03,
          1.02608316e-01, 5.03341341e-03, -9.66648571e-03,
          3.98886390e-02, -2.30030809e-02, 2.54896302e-02,
          1.02060698e-01, -2.29632407e-02, 9.71571133e-02,
          -1.46404011e-02, 7.36944973e-02, -4.11495358e-01,
          6.70184121e-02, 6.68590069e-02, 6.81163371e-02, 6.76902458e-02,
          6.81168959e-02 ]
      - [ -3.73009533e-01, 2.99027652e-01, 4.84445959e-01,
          -7.08107948e-02, -7.90842846e-02, -6.60036951e-02,
          -6.64430037e-02, -7.57438913e-02, -7.65420049e-02,
          -6.65069818e-02, -6.64430037e-02, -1.88355416e-01,
          -4.85962220e-02, -9.47557539e-02, -6.64430037e-02,
          -4.27230477e-01, -8.41006768e-05, -2.36319482e-01,
          -6.64430037e-02, -8.76746848e-02, 7.69399805e-03,
          8.29537749e-01, 5.35784006e-01, -2.71391850e-02,
          -1.24881242e-03, -2.66848970e-02, 1.04445694e-02,
          -1.06097385e-01, -1.00575946e-02, -7.81317875e-02,
          2.09158175e-02, -9.59031098e-03, 9.77850705e-02,
          -1.64308716e-02, 7.69262984e-02, -1.02382168e-01,
          -6.02792623e-03, -7.80397356e-02, 5.36301592e-03,
          3.77050340e-02, 3.19729507e-01, -4.12022788e-03,
          1.45856485e-01, -8.95053670e-02, 2.58896686e-03,
          -7.30568618e-02, 4.57233936e-03, 2.49195974e-02,
          2.33627886e-01, -2.65860688e-02, -1.71497848e-03,
          -7.44815990e-02, 2.43160222e-02, -8.01993385e-02,
          -7.10166618e-03, -4.22841832e-02, -1.13748498e-01,
          -3.92550640e-02, -7.76639879e-02, -7.81911686e-02,
          1.58230346e-02, -8.28518048e-02, -8.78703780e-03,
          -1.06346617e-02, 9.64161158e-02, -4.51373458e-02,
          -7.07762241e-02, -7.46061355e-02, 3.06935497e-02,
          -7.33087063e-02, 1.37711456e-02, 1.97375380e-02,
          2.45922267e-01, -1.42354965e-02, 1.16372302e-01,
          -8.88342708e-02, -2.86274706e-04, -5.96801452e-02,
          3.94148491e-02, 1.08579807e-02, 1.80603743e-01,
          -1.59003697e-02, 7.29217380e-02, -9.99289751e-02,
          -3.47531843e-03, -6.46280199e-02, 3.55254337e-02,
          -5.58165181e-03, 1.26201625e-03, 2.19081971e-03,
          1.05600117e-03, 3.10827716e-04, 4.51360334e-04, 3.10531177e-04 ]
      - [ -1.27868950e-01, -1.06355593e-01, -1.26729280e-01,
          -8.04429129e-02, -1.48584068e-01, -6.28551468e-02,
          -6.71589747e-02, -6.71014637e-02, -1.56167403e-01,
          -6.71589747e-02, -6.71589747e-02, -6.71589747e-02,
          2.36214623e-02, -6.71589747e-02, -6.71589747e-02,
          -3.57036628e-02, -1.85915530e-02, -6.71589747e-02,
          -6.71589747e-02, 1.34792671e-01, -2.49029923e-04,
          7.57090390e-01, 5.52416265e-01, 3.55762802e-02, 1.39286667e-01,
          1.64881907e-02, 5.56869693e-02, -1.14874683e-01,
          3.84297632e-02, -1.35289162e-01, -1.79375112e-02,
          1.33844065e-02, 8.19472298e-02, 6.90550776e-03, 2.52118893e-02,
          -1.09069809e-01, 4.46134359e-02, -1.32682696e-01,
          -1.71675924e-02, 2.00746749e-02, 1.04224272e-01,
          6.49081357e-03, 2.62697674e-02, -1.04580365e-01,
          4.77589667e-02, -1.30024955e-01, -1.45270536e-02,
          2.79910732e-02, 1.31892622e-01, 9.14810225e-03, 2.81905700e-02,
          -1.04477331e-01, 4.69910316e-02, -1.28083572e-01,
          -9.24899150e-03, 3.50220054e-02, 1.27158970e-01,
          1.55276898e-02, 4.69470099e-02, -1.07275032e-01,
          4.59747240e-02, -1.24796122e-01, -5.29849390e-03,
          2.21094992e-02, 1.13793090e-01, 1.16144940e-02, 4.99170274e-02,
          -1.08101033e-01, 4.62521538e-02, -1.26746535e-01,
          -6.27225358e-03, 2.25315839e-02, 1.30246699e-01,
          1.42593011e-02, 7.54436776e-02, -1.13716573e-01,
          3.92222479e-02, -1.30694896e-01, -1.17310500e-02,
          2.90823150e-02, 1.48739234e-01, 1.75801944e-02, 7.96647444e-02,
          -1.15107201e-01, 3.68788131e-02, -1.33003116e-01,
          -1.38215898e-02, -3.27838316e-05, 6.42588781e-03,
          -4.74808257e-05, -1.44782255e-03, -1.63504144e-03,
          -1.62781565e-03, -1.63505354e-03 ]
      - [ -3.45168024e-01, -1.82427377e-01, 2.34471381e-01,
          1.39182255e-01, 1.33379534e-01, 1.39101624e-01, 1.39101624e-01,
          1.39101624e-01, 1.40772879e-01, 1.39101624e-01, 1.39101624e-01,
          1.39101624e-01, 1.39271542e-01, 1.39101624e-01, 1.39101624e-01,
          1.39101624e-01, 1.39150947e-01, 1.39101624e-01, 1.39101624e-01,
          -5.24884284e-01, -1.70879507e+00, 6.39710352e-02,
          2.40957335e-01, 1.70967385e-01, -9.44857746e-02,
          1.90930724e-01, -9.04556364e-02, -2.93352485e-01,
          5.06887734e-02, -9.40292031e-02, 1.76401258e-01,
          1.40974194e-01, -1.19206876e-01, 1.75717533e-01,
          -1.23672962e-01, -2.69027680e-01, 8.23956579e-02,
          -1.00906163e-01, 1.56133130e-01, 1.36716157e-01,
          -1.17513835e-01, 1.66522607e-01, -1.26689792e-01,
          -2.41662085e-01, 1.14222325e-01, -9.29770172e-02,
          1.51024833e-01, 1.29237399e-01, -1.14836194e-01,
          1.60468951e-01, -1.30436733e-01, -2.04279333e-01,
          1.45450249e-01, -8.03176537e-02, 1.43188506e-01,
          1.19522773e-01, -1.75831988e-01, 1.51224077e-01,
          -1.69911370e-01, -1.54238164e-01, 1.89952314e-01,
          -6.46354780e-02, 1.56177565e-01, 1.18432134e-01,
          -1.57266080e-01, 1.45907938e-01, -1.76692337e-01,
          -1.61551863e-01, 1.81500256e-01, -5.47359139e-02,
          1.69572353e-01, 9.96297449e-02, -2.09013075e-01,
          1.55009240e-01, -1.47626266e-01, -1.88794315e-01,
          1.47356704e-01, -6.59250095e-02, 1.73502207e-01,
          1.20734625e-01, -1.61909819e-01, 1.69094428e-01,
          -1.31081074e-01, -2.56247610e-01, 8.99806693e-02,
          -8.28105807e-02, 1.73483163e-01, -3.17410044e-02,
          2.30072886e-01, -4.36953828e-02, -3.80108170e-02,
          -3.90616469e-02, -3.85021530e-02, -3.90618332e-02 ]
      - [ -2.40214974e-01, -1.60672143e-01, -1.41558051e-01,
          -2.42417660e-02, -1.21262670e-03, -2.20510084e-02,
          -2.44454183e-02, -2.44454183e-02, -1.72449443e-02,
          -2.44454183e-02, -2.44454183e-02, -2.44454183e-02,
          1.24572767e-02, -2.44454183e-02, -2.44454183e-02,
          -2.44454183e-02, -1.62797607e-02, -2.44454183e-02,
          -2.44454183e-02, -1.49463862e-02, 5.82800014e-03,
          6.08192980e-01, 2.56397486e-01, 7.91262686e-02,
          -2.86632180e-02, 1.10377125e-01, 1.50874620e-02,
          -9.79068801e-02, 3.62654962e-02, -4.20690440e-02,
          2.93400474e-02, 5.35631739e-02, -6.79438114e-02,
          9.67807695e-02, -1.03777293e-02, -8.80789086e-02,
          4.36209217e-02, -3.92794833e-02, 3.07137445e-02,
          3.64358760e-02, -1.11892425e-01, 8.10968876e-02,
          -4.83886562e-02, -7.34523535e-02, 6.22966178e-02,
          -3.14456336e-02, 3.81696373e-02, 2.95708813e-02,
          -1.35435820e-01, 7.46112615e-02, -7.07927346e-02,
          -5.67596182e-02, 7.39396960e-02, -2.29812674e-02,
          4.76688370e-02, 3.87571156e-02, -1.35970950e-01,
          7.65992552e-02, -7.80241787e-02, -5.48058413e-02,
          7.88913444e-02, -1.82532798e-02, 5.35233654e-02,
          3.45909148e-02, -1.27830535e-01, 7.68079758e-02,
          -7.36271590e-02, -5.50702773e-02, 7.69400224e-02,
          -2.26883590e-02, 4.89865616e-02, 4.56562974e-02,
          -9.34934393e-02, 8.87117237e-02, -3.49133201e-02,
          -7.51741603e-02, 5.80617972e-02, -3.01568974e-02,
          4.17644009e-02, 6.31029010e-02, -4.46970575e-02,
          1.01328634e-01, -6.37553283e-04, -9.09471586e-02,
          4.22789715e-02, -3.80916856e-02, 3.51834781e-02,
          -1.54756941e-02, 1.29325852e-01, -2.10535079e-02,
          -2.25850102e-02, -2.34732758e-02, -2.32645720e-02,
          -2.34737787e-02 ]
      - [ -7.42087722e-01, -3.67986530e-01, -5.90821564e-01,
          2.55858917e-02, 1.45073205e-01, 3.58880758e-02, 2.44324002e-02,
          2.45733652e-02, 7.05439895e-02, 2.44324002e-02, 2.44324002e-02,
          2.44324002e-02, 2.61731565e-01, 2.44324002e-02, 2.44324002e-02,
          1.01526566e-01, 1.46286488e-01, 2.44324002e-02, 2.44324002e-02,
          4.29716885e-01, 2.01443613e-01, -2.87048459e-01,
          3.50115210e-01, -4.91903722e-02, 5.64945221e-01,
          -1.67595744e-01, 2.17628241e-01, -2.81550195e-02,
          -3.41626555e-02, -2.04872206e-01, -1.98856726e-01,
          -8.34278315e-02, 4.59236860e-01, -1.77238330e-01,
          1.88892439e-01, -2.13607494e-02, -2.54625678e-02,
          -2.07990035e-01, -2.16732353e-01, -8.51076171e-02,
          4.97254044e-01, -1.92847639e-01, 1.64613739e-01,
          2.57886760e-02, 1.90301631e-02, -1.88455865e-01,
          -1.94796309e-01, -8.95196870e-02, 4.61397171e-01,
          -2.04978481e-01, 1.19490966e-01, 5.24203256e-02,
          4.42655608e-02, -1.65937588e-01, -1.77055582e-01,
          -1.35184601e-01, 2.51844645e-01, -2.20780492e-01,
          5.31922169e-02, 6.75546378e-02, 6.67664483e-02,
          -1.50947958e-01, -1.63694739e-01, -1.31727412e-01,
          3.10792476e-01, -2.23793298e-01, 5.24100363e-02,
          6.70967028e-02, 6.68717548e-02, -1.58003137e-01,
          -1.59923017e-01, -1.04735099e-01, 4.53461707e-01,
          -1.95464477e-01, 1.91819802e-01, 2.76117641e-02,
          1.25638619e-02, -1.68400779e-01, -1.55829906e-01,
          -5.28323762e-02, 6.10532105e-01, -1.69136375e-01,
          2.60369748e-01, -2.61861719e-02, -3.61501537e-02,
          -1.78939655e-01, -1.62378132e-01, -5.68215810e-02,
          4.22983199e-01, -7.42083713e-02, -7.12608323e-02,
          -7.38531128e-02, -7.29852244e-02, -7.38542601e-02 ]
      - [ 3.13186832e-02, 3.92761827e-02, 1.90231115e-01,
          -1.94837794e-01, 1.31874746e-02, -1.71730205e-01,
          1.53828310e-02, -2.22916179e-03, -1.32303417e-03,
          1.53828310e-02, 1.53828310e-02, 1.23723820e-02, 3.72625334e-04,
          1.53828310e-02, 1.53828310e-02, 1.63742658e-02, 1.10740773e-02,
          1.53828310e-02, 1.53828310e-02, -3.76628786e-01,
          -3.14189878e-04, 2.47958004e-01, 7.72185996e-02,
          -2.55403053e-02, -3.36510055e-02, -3.26747261e-02,
          -3.21362913e-02, 7.93306604e-02, 2.39254516e-02,
          4.42275219e-02, -1.51542099e-02, -2.23448277e-02,
          -1.50152622e-02, -3.23601104e-02, -2.85712555e-02,
          8.08283761e-02, 2.69704536e-02, 4.46662642e-02,
          -2.11691223e-02, -2.43358761e-02, -3.32570672e-02,
          -3.51679213e-02, -3.56035270e-02, 8.32735822e-02,
          2.78211571e-02, 4.63709496e-02, -2.02262960e-02,
          -3.15843970e-02, -6.04923181e-02, -3.98715883e-02,
          -5.77904582e-02, 8.56259912e-02, 3.26412767e-02,
          4.85760309e-02, -1.36550404e-02, -3.78299318e-02,
          -7.88391009e-02, -4.19304557e-02, -6.80387914e-02,
          8.85605663e-02, 3.91229317e-02, 5.01120053e-02,
          -8.80941004e-03, -2.56957747e-02, -4.85272072e-02,
          -3.68852653e-02, -5.45639619e-02, 8.49896893e-02,
          3.61739881e-02, 5.05120419e-02, 5.02224604e-04,
          -2.16535982e-02, -3.38631757e-02, -3.25047262e-02,
          -4.56329100e-02, 8.20520818e-02, 3.12929191e-02,
          4.80411686e-02, 5.04477706e-04, -2.12445650e-02,
          -3.54627408e-02, -3.19420807e-02, -4.38054129e-02,
          7.82270804e-02, 2.55270638e-02, 4.54134122e-02,
          -7.45866634e-03, 1.82718376e-03, -1.96981747e-02,
          3.17712873e-03, 3.57670244e-03, 3.71816382e-03, 3.68069694e-03,
          3.71830282e-03 ]
      - [ -1.92737132e-01, -1.18159875e-01, 1.07032619e-01,
          -4.97711189e-02, -4.50983159e-02, -4.75344993e-02,
          -4.99774106e-02, -4.99774106e-02, -4.38446477e-02,
          -4.99774106e-02, -4.99774106e-02, -4.99774106e-02,
          -1.61371063e-02, -4.99774106e-02, -4.99774106e-02,
          -4.99774106e-02, -4.32123654e-02, -4.99774106e-02,
          -4.99774106e-02, -3.86001617e-02, -3.14327180e-02,
          8.08853447e-01, 2.10416049e-01, 4.85889614e-02, 8.91771615e-02,
          4.51355875e-02, 6.41790256e-02, -9.56160352e-02,
          6.33043610e-03, -8.78915042e-02, 2.81365085e-02,
          3.46932374e-02, 6.16745129e-02, 3.69648635e-02, 3.75708267e-02,
          -8.74485672e-02, 1.68238655e-02, -8.21872875e-02,
          3.61795872e-02, 1.73813011e-02, -1.19599875e-03,
          2.21080091e-02, -1.32310661e-02, -6.05698191e-02,
          5.13286926e-02, -6.91111088e-02, 5.53790443e-02,
          1.83949864e-03, -6.11970462e-02, 8.36971682e-03,
          -6.63997307e-02, -4.40280959e-02, 7.52074793e-02,
          -5.82589433e-02, 7.14144632e-02, -1.37054140e-03,
          -9.20559764e-02, 6.37779618e-03, -8.28664228e-02,
          -4.19510230e-02, 8.16628933e-02, -5.17219603e-02,
          7.91007653e-02, 2.98835873e-03, -5.13417907e-02,
          9.85760335e-03, -6.20615818e-02, -4.35528122e-02,
          7.33837783e-02, -5.53161912e-02, 7.34372959e-02,
          1.32475514e-02, -1.88598828e-03, 2.13451367e-02,
          -1.02205975e-02, -6.23397939e-02, 4.43897769e-02,
          -6.36791959e-02, 6.18869662e-02, 3.36747691e-02,
          6.50179684e-02, 3.71253118e-02, 4.81111817e-02,
          -8.86643454e-02, 1.30523592e-02, -7.84994140e-02,
          4.15204242e-02, -2.16118023e-02, 1.68244511e-01,
          -2.69758720e-02, -2.90434584e-02, -3.03038713e-02,
          -3.00049037e-02, -3.03045902e-02 ]
      - [ -3.07099093e-02, -1.11684747e-01, 3.54770809e-01,
          -2.10530940e-03, -3.30317318e-02, 5.09574544e-03,
          5.09574544e-03, 3.27043096e-03, -1.19727636e-02,
          5.09574544e-03, 5.09574544e-03, -1.16247870e-03,
          -5.81974424e-02, 5.09574544e-03, 5.09574544e-03,
          -1.26358811e-02, -1.84364527e-01, 5.09574544e-03,
          5.09574544e-03, -2.46851072e-01, -7.53097236e-02,
          2.88259804e-01, 8.09586197e-02, -2.66143051e-03,
          2.72681471e-02, -1.07068550e-02, 8.93871114e-03,
          2.76535433e-02, 9.23330721e-04, 9.92332958e-03,
          -2.24215928e-02, -5.17747551e-03, 1.76093150e-02,
          -1.48081202e-02, -7.97303673e-03, 2.97712702e-02,
          4.17984836e-03, 1.18016629e-02, -1.96606144e-02,
          -1.42638683e-02, -1.56014385e-02, -2.01081857e-02,
          -2.66922470e-02, 3.84891145e-02, 1.35789197e-02,
          1.60508920e-02, -1.53831048e-02, -1.77429430e-02,
          -2.48209927e-02, -2.43905485e-02, -3.93751748e-02,
          4.45846096e-02, 2.02655755e-02, 2.02792268e-02,
          -1.28297610e-02, -2.04471890e-02, -2.38318145e-02,
          -2.46583521e-02, -3.82906273e-02, 4.87447754e-02,
          2.42088921e-02, 2.17761006e-02, -1.43316556e-02,
          -1.46456193e-02, -1.04944054e-02, -2.04744842e-02,
          -2.35841088e-02, 4.48595099e-02, 1.88064147e-02,
          1.79362092e-02, -2.04168614e-02, -9.97839402e-03,
          5.22064185e-03, -1.57051273e-02, -8.86943657e-03,
          3.56590077e-02, 9.42774583e-03, 1.32049043e-02,
          -2.35617533e-02, -2.94360379e-03, 2.48639621e-02,
          -1.10487137e-02, 8.03403836e-03, 2.68292557e-02,
          8.10269776e-05, 1.09813679e-02, -2.40518358e-02,
          -9.93014406e-03, 7.88116753e-02, -1.36078205e-02,
          -1.35570196e-02, -1.39462994e-02, -1.38237923e-02,
          -1.39465872e-02 ]
      - [ -2.00150236e-01, -1.16188616e-01, 1.32875249e-01,
          -1.69421220e+00, -7.66792372e-02, -1.07220165e-01,
          2.81941026e-01, 2.94052750e-01, 2.25105271e-01, 2.99590975e-01,
          2.99590975e-01, 2.87632912e-01, -2.61154473e-01,
          2.99590975e-01, 2.99590975e-01, 2.98317611e-01,
          -2.49810606e-01, 2.99590975e-01, 2.99590975e-01,
          1.34978712e-01, -1.18053198e+00, 3.74975920e-01,
          5.85219748e-02, 2.65117530e-02, 3.92422080e-01,
          -1.39924198e-01, -6.81605041e-02, 5.29386513e-02,
          6.85305567e-03, -1.81818962e-01, -1.02049492e-01,
          -3.02988617e-03, 3.48026633e-01, -1.88472420e-01,
          -2.57584691e-01, 1.09470636e-01, 7.39563331e-02,
          -1.34418651e-01, -3.79725322e-02, -6.35610223e-02,
          1.13787249e-01, -2.32227087e-01, -4.19105470e-01,
          1.94575146e-01, 1.49498194e-01, -1.05969869e-01,
          -2.38113850e-03, -8.61381292e-02, 1.54769234e-02,
          -2.42882162e-01, -4.58194137e-01, 1.91142470e-01,
          1.61482349e-01, -8.69128034e-02, -1.07084482e-03,
          -7.25060627e-02, 6.88146502e-02, -2.09954470e-01,
          -2.90491223e-01, 1.70832217e-01, 1.36745587e-01,
          -8.30043480e-02, -7.07480218e-03, 1.34896310e-02,
          5.07257819e-01, -1.49465621e-01, 2.79053133e-02,
          1.23320125e-01, 7.63221085e-02, -1.18332289e-01,
          -5.60206138e-02, 3.34018059e-02, 6.01157963e-01,
          -1.16316698e-01, 1.76474422e-01, 7.38185942e-02,
          1.84424818e-02, -1.73095122e-01, -1.14831924e-01,
          5.74400797e-02, 6.14930511e-01, -1.12723790e-01,
          1.04287915e-01, 3.22773047e-02, -1.18604386e-02,
          -2.01230988e-01, -1.44278228e-01, 2.77946908e-02,
          -1.87999830e-02, -1.21211655e-01, 1.36068761e-02,
          3.16454917e-02, 3.57708484e-02, 3.11932117e-02 ]
      - [ -2.99870998e-01, 1.60041135e-02, 1.00955002e-01,
          1.77916288e-02, 4.97689843e-03, 1.96267888e-02, 1.89666301e-02,
          1.88099220e-02, 1.09099438e-02, 1.89666301e-02, 1.89666301e-02,
          1.88490991e-02, 9.69218649e-03, 1.89666301e-02, 1.89666301e-02,
          1.68722775e-02, -7.65047371e-02, 1.89666301e-02,
          1.89666301e-02, 1.83020742e-03, -1.85326025e-01,
          2.36788318e-01, -4.41710427e-02, -1.33450050e-02,
          -1.70764066e-02, -1.85718369e-02, -2.70508062e-02,
          6.26300424e-02, -4.81619849e-04, 4.68838364e-02,
          -1.48201790e-02, -1.28926430e-02, -1.87436938e-02,
          -1.78977810e-02, -2.02876572e-02, 6.18925057e-02,
          -2.55395914e-03, 4.75246422e-02, -1.49444118e-02,
          -1.60534866e-02, -3.42705995e-02, -1.93193052e-02,
          -2.83663440e-02, 6.14331290e-02, -3.51763796e-03,
          4.70931120e-02, -1.54106868e-02, -1.80492494e-02,
          -4.42917310e-02, -2.04196218e-02, -3.30292694e-02,
          6.11854345e-02, -2.79144477e-03, 4.70384508e-02,
          -1.47815421e-02, -1.80873685e-02, -3.32626142e-02,
          -2.03528460e-02, -2.99475640e-02, 6.21020533e-02,
          -7.23003992e-04, 4.70061488e-02, -1.39834089e-02,
          -1.35284383e-02, -2.58646179e-02, -1.89793129e-02,
          -2.95876488e-02, 6.18615448e-02, -5.87708084e-04,
          4.69506942e-02, -1.19160824e-02, -1.30847320e-02,
          -3.11794300e-02, -1.85871944e-02, -3.45717482e-02,
          6.22286759e-02, 2.56931758e-04, 4.65002917e-02,
          -1.36183184e-02, -1.35538615e-02, -3.32003571e-02,
          -1.86082907e-02, -3.53164859e-02, 6.25952482e-02,
          5.29563113e-04, 4.64910939e-02, -1.46954069e-02,
          5.09387534e-03, -5.04420176e-02, 8.01771414e-03,
          9.20168404e-03, 9.38183255e-03, 9.36510321e-03, 9.38180462e-03 ]
      - [ -1.21294476e-01, -2.19526619e-01, 2.17873037e-01,
          -1.44769371e-01, -2.52568233e-03, -2.03913495e-01,
          1.65413152e-02, 1.96760297e-02, 3.46179418e-02, 2.05838010e-02,
          2.32202336e-02, 2.28651445e-02, 5.70477694e-02, 2.31049489e-02,
          2.32202336e-02, 4.60776985e-02, 2.95813978e-02, 1.84723232e-02,
          2.32202336e-02, 4.07752804e-02, 2.97550317e-02, 1.95613839e-02,
          2.58358642e-02, 3.99391875e-02, -1.01490587e-01,
          6.91530257e-02, -4.46277075e-02, 1.86204594e-02,
          7.59697855e-02, 1.31821819e-02, -5.76799624e-02,
          3.46265957e-02, -1.07672341e-01, 6.85538203e-02,
          -4.03454863e-02, 1.87438279e-02, 7.27943778e-02,
          1.38555532e-02, -5.50413243e-02, 3.98801155e-02,
          -8.69897604e-02, 7.09618255e-02, -3.12812291e-02,
          1.75508820e-02, 7.12826550e-02, 1.48578249e-02,
          -5.32224998e-02, 4.65767719e-02, -6.96101040e-02,
          7.15814158e-02, -3.55884731e-02, 1.44100590e-02,
          6.43227920e-02, 1.43033313e-02, -5.39399609e-02,
          4.03422713e-02, -1.08810522e-01, 7.00142458e-02,
          -5.36311045e-02, 1.60876922e-02, 6.96398616e-02,
          1.26339989e-02, -5.58872260e-02, 3.49457972e-02,
          -1.30802050e-01, 6.61695823e-02, -7.03967884e-02,
          1.51886251e-02, 7.12092891e-02, 1.15345931e-02,
          -5.84851094e-02, 3.58556956e-02, -1.20295361e-01,
          6.62164763e-02, -6.27761185e-02, 1.55464411e-02,
          7.45157376e-02, 1.12725748e-02, -6.19379580e-02,
          3.75499353e-02, -1.04754612e-01, 6.81527779e-02,
          -4.87299338e-02, 1.90121997e-02, 7.44135529e-02,
          1.25091784e-02, -5.99808134e-02, 4.99042496e-03,
          -1.17082279e-02, 6.53228303e-03, 7.96342210e-04,
          -1.55052214e-04, -3.10377247e-04, -1.45377286e-04 ]
      - [ 2.90216058e-01, 4.84179072e-02, -7.68302009e-02,
          -2.41626110e-02, 2.51233220e-01, -1.82546210e-02,
          -1.82590112e-02, -1.71607547e-02, 4.28741332e-03,
          -1.82590112e-02, -1.82590112e-02, -1.80666354e-02,
          6.15171902e-02, -1.82590112e-02, -1.82590112e-02,
          -1.89505536e-02, -3.85224558e-02, -1.82590112e-02,
          -1.82590112e-02, -4.08509783e-02, -1.20246977e-01,
          -1.27622440e-01, -2.71909293e-02, -5.70753298e-04,
          1.17803864e-01, 9.05118510e-03, 1.85159132e-01, 1.32268175e-01,
          -7.22612217e-02, 1.43067539e-01, -3.36875692e-02,
          6.51494507e-03, 6.66695386e-02, 1.07694045e-02, 1.55310482e-01,
          1.37200058e-01, -6.45732358e-02, 1.48806676e-01,
          -2.30800752e-02, -2.89453957e-02, -1.03945300e-01,
          -1.54583137e-02, 6.39842963e-03, 1.58616483e-01,
          -2.99546011e-02, 1.62018403e-01, 8.25030729e-03,
          -6.21855259e-02, -2.65883029e-01, -6.96436614e-02,
          -2.65732646e-01, 1.84011593e-01, 1.21078324e-02,
          1.71987355e-01, 4.24264222e-02, -1.05488785e-01,
          -4.22592908e-01, -9.45758969e-02, -3.69289219e-01,
          1.98536783e-01, 2.44440865e-02, 1.76018998e-01, 4.89090756e-02,
          -7.33419806e-02, -3.31570953e-01, -8.13187361e-02,
          -3.24405760e-01, 2.04233170e-01, 3.01611051e-02,
          1.71786636e-01, 3.92087847e-02, -4.21804227e-02,
          -1.70207158e-01, -4.79914322e-02, -1.62708566e-01,
          1.74571037e-01, -1.45103773e-02, 1.61993980e-01,
          1.59714352e-02, -2.78432351e-02, -7.67182559e-02,
          -9.42861568e-03, 7.50637203e-02, 1.41007289e-01,
          -5.60733303e-02, 1.49089351e-01, -2.32662037e-02,
          6.80342391e-02, -2.30031639e-01, 9.67351645e-02,
          2.35547237e-02, 1.50140440e-02, 1.16179092e-02, 1.50755653e-02 ]
      - [ 1.05199993e+00, -2.61712819e-03, -3.20664495e-01,
          -6.51050881e-02, 5.38337946e-01, -9.25272703e-02,
          -9.17358398e-02, -9.18613970e-02, 7.38655701e-02,
          -9.32884663e-02, -9.32690203e-02, -1.24731250e-01,
          3.86314869e-01, -1.01875089e-01, -9.32690203e-02,
          -2.59056240e-01, -3.61110568e-02, -1.44905448e-01,
          -9.32690203e-02, 1.12153299e-01, -6.17298968e-02,
          -3.28853488e-01, -6.78018257e-02, 2.49228887e-02,
          2.53278077e-01, 2.21838597e-02, 2.48832062e-01,
          -6.76226169e-02, -1.52600864e-02, -1.34433866e-01,
          -1.13298655e-01, 4.04479019e-02, 3.29772681e-01,
          4.40538861e-02, 3.88993174e-01, -5.07609807e-02,
          -5.46433078e-03, -1.13444522e-01, -9.91538614e-02,
          1.31869027e-02, 2.87089676e-01, 9.07035731e-03, 3.00310344e-01,
          -3.65360193e-02, 3.08755096e-02, -8.02754685e-02,
          -4.19425108e-02, -6.47195280e-02, -6.97513223e-02,
          -5.91807999e-02, -5.77254593e-02, -1.77984796e-02,
          8.96691680e-02, -6.05339222e-02, -8.49940628e-03,
          -1.17394224e-01, -3.69760454e-01, -7.70992190e-02,
          -1.58709750e-01, 1.05317067e-02, 8.88249651e-02,
          -5.27223535e-02, 2.21366063e-04, -5.14846407e-02,
          -4.27411534e-02, -7.94317201e-02, -1.55153930e-01,
          3.39954831e-02, 1.28606796e-01, -5.24648316e-02,
          2.84983683e-03, -4.32271697e-02, 9.66471154e-03,
          -3.64926420e-02, 9.21986103e-02, -1.12677291e-02,
          5.63343242e-02, -6.07174523e-02, -8.33700318e-03,
          -2.94458121e-02, 2.58583706e-02, -6.51987875e-03,
          1.54461354e-01, -5.29183336e-02, 1.26886852e-02,
          -1.09237880e-01, -8.73958543e-02, -2.14068830e-01,
          1.37058055e+00, -7.12824166e-02, -2.49603018e-01,
          -2.76326269e-01, -2.83106953e-01, -2.76193082e-01 ]
      - [ 7.55886078e-01, -5.13204873e-01, -5.27772784e-01,
          -5.92977107e-02, 3.43865007e-02, -7.29788467e-02,
          -7.25347921e-02, -6.25645816e-02, -8.99548382e-02,
          -7.34259933e-02, -7.34259933e-02, -6.21262379e-02,
          5.99233568e-01, -7.34259933e-02, -7.34259933e-02,
          -4.31031846e-02, 1.09259732e-01, -7.34259933e-02,
          -7.34259933e-02, 2.07137510e-01, 1.16396479e-01,
          1.13864066e-02, 1.10408127e-01, 2.36037716e-01, 2.31561050e-01,
          2.23598465e-01, 8.16033632e-02, -1.56389743e-01,
          1.24750808e-01, -2.13058859e-01, -4.21611518e-02,
          1.81860059e-01, -8.33525788e-03, 1.99490935e-01,
          -1.82714611e-02, -1.60367161e-01, 1.23274580e-01,
          -2.08891705e-01, -2.52880137e-02, 1.46322042e-01,
          -1.61304832e-01, 1.83376834e-01, -1.00113682e-01,
          -1.78503186e-01, 1.26889601e-01, -1.94153771e-01,
          1.48830135e-04, 1.55165717e-01, -7.90422112e-02,
          1.92015052e-01, -3.36788520e-02, -1.56280935e-01,
          1.40297636e-01, -1.89264819e-01, 1.39421169e-02,
          2.03365445e-01, 1.74687877e-01, 2.02935904e-01, 3.21462192e-02,
          -1.43434778e-01, 1.59105897e-01, -1.81253314e-01,
          2.81022452e-02, 1.08301014e-01, -2.01566041e-01,
          1.84544846e-01, -2.13018265e-02, -1.69742703e-01,
          1.39174283e-01, -1.92270055e-01, 1.42384507e-02,
          7.26372078e-02, -3.73532921e-01, 1.68313771e-01,
          -1.08163796e-01, -2.10957035e-01, 1.15459092e-01,
          -2.04637676e-01, -7.50236353e-03, 1.21248357e-01,
          -1.95219904e-01, 1.87024996e-01, -1.78172309e-02,
          -1.75323799e-01, 1.13632441e-01, -2.16474071e-01,
          -4.09506150e-02, -1.90637752e-01, 1.62726605e+00,
          -1.07065886e-01, -3.07586610e-01, -3.38248640e-01,
          -3.45600903e-01, -3.38126302e-01 ]
      - [ 7.78459907e-02, -3.10893916e-02, 9.42354277e-02,
          2.60887314e-02, 2.91371457e-02, 2.51521748e-02, 2.51521748e-02,
          2.53235884e-02, 2.59042755e-02, 2.51521748e-02, 2.51521748e-02,
          2.53117438e-02, 3.30849662e-02, 2.51521748e-02, 2.51521748e-02,
          4.40684855e-02, 3.63694765e-02, 2.51521748e-02, 2.51521748e-02,
          1.10842355e-01, -1.06958441e-01, -3.02658945e-01,
          -2.88722843e-01, 2.23514829e-02, -3.06222271e-02,
          3.35776918e-02, -7.59748975e-03, -7.54371565e-03,
          3.09189279e-02, -1.10425306e-02, -1.96656194e-02,
          1.94864701e-02, -3.65754403e-02, 3.22408378e-02,
          -1.06742820e-02, -7.64696300e-03, 3.03317308e-02,
          -1.17726941e-02, -1.96212362e-02, 2.14847419e-02,
          -3.13038230e-02, 3.27429399e-02, -1.03274779e-02,
          -8.18157848e-03, 2.93019935e-02, -1.25259114e-02,
          -1.93555001e-02, 2.52365507e-02, -2.08253674e-02,
          3.38510349e-02, -9.24126990e-03, -1.08660012e-02,
          2.52737328e-02, -1.31093105e-02, -2.01474149e-02,
          2.39612386e-02, -2.99797170e-02, 3.36634479e-02,
          -1.41577320e-02, -8.19240604e-03, 2.82326452e-02,
          -1.30806398e-02, -2.04074197e-02, 2.16090921e-02,
          -3.77546996e-02, 3.23106647e-02, -1.85873285e-02,
          -6.75885193e-03, 3.01464647e-02, -1.30321318e-02,
          -2.14848053e-02, 2.07359847e-02, -3.71704698e-02,
          3.25944908e-02, -1.36509724e-02, -5.67111606e-03,
          3.18799689e-02, -1.24485465e-02, -2.24634409e-02,
          2.14656424e-02, -3.20893899e-02, 3.27263288e-02,
          -1.04678394e-02, -6.60665845e-03, 3.06057706e-02,
          -1.20637026e-02, -2.20161472e-02, -1.43922144e-03,
          2.10861377e-02, -2.13140668e-03, -4.12920816e-03,
          -4.44326689e-03, -4.50042449e-03, -4.44259215e-03 ]
      - [ 1.36069298e-01, -2.90677637e-01, -2.06765845e-01,
          -1.73948065e-03, 8.06158930e-02, -9.65191890e-03,
          -9.65191890e-03, -7.58077716e-03, 2.93344297e-02,
          -9.65191890e-03, -9.65191890e-03, -8.08272138e-03,
          8.51027668e-02, -9.65191890e-03, -9.65191890e-03,
          1.49503155e-02, 1.66972242e-02, -9.65191890e-03,
          -9.65191890e-03, 1.58571362e-01, 4.41389643e-02,
          -2.61264853e-02, 5.27081899e-02, 1.22971825e-01,
          -1.35811388e-01, 2.14814067e-01, 5.50530627e-02,
          -1.29698724e-01, 9.29844901e-02, -1.77819263e-02,
          8.16697180e-02, 1.00102074e-01, -1.91741347e-01,
          2.02121750e-01, 1.28429886e-02, -1.36486784e-01,
          8.86405110e-02, -2.80905459e-02, 7.85303712e-02,
          8.77277777e-02, -2.28717655e-01, 1.88526481e-01,
          -4.11811359e-02, -1.35644913e-01, 9.15903002e-02,
          -3.46718356e-02, 7.92979896e-02, 9.55185145e-02,
          -2.07173005e-01, 1.78416863e-01, -7.18609393e-02,
          -1.22260883e-01, 9.16460454e-02, -4.02276143e-02,
          7.83175156e-02, 8.91025364e-02, -2.44980425e-01,
          1.69659004e-01, -1.13261379e-01, -1.26710683e-01,
          9.37350094e-02, -3.55475582e-02, 8.55116174e-02,
          4.97831367e-02, -3.41870129e-01, 1.50753677e-01,
          -1.50962010e-01, -1.19254537e-01, 9.98043865e-02,
          -2.84459461e-02, 8.57400894e-02, 4.82453257e-02,
          -3.24013650e-01, 1.56776473e-01, -1.18370250e-01,
          -1.18614748e-01, 1.04761533e-01, -1.86597612e-02,
          8.44391063e-02, 8.52315798e-02, -2.07216084e-01,
          1.86148480e-01, -1.57160573e-02, -1.14342883e-01,
          1.01340309e-01, -1.51950084e-02, 8.27050582e-02,
          -1.73283610e-02, 1.85538143e-01, -7.48997973e-03,
          -3.62465940e-02, -4.11562845e-02, -4.21702527e-02,
          -4.11465801e-02 ]
      - [ 4.56462175e-01, -6.99140787e-01, -5.21582127e-01,
          3.13114785e-02, 3.64401758e-01, -8.12718552e-03,
          -7.53348926e-03, 3.13758198e-03, 1.50520429e-01,
          -8.56234226e-03, -8.56234226e-03, 3.53048352e-04,
          3.68599892e-01, -8.56234226e-03, -8.56234226e-03,
          3.96887511e-02, 1.97410975e-02, -8.56234226e-03,
          -8.56234226e-03, 3.12889487e-01, 2.03037132e-02,
          -3.18961978e-01, -1.60689503e-01, 3.30763943e-02,
          2.70786315e-01, -6.37673633e-03, 1.11870967e-01,
          2.82844179e-03, 5.12058698e-02, -8.26466307e-02,
          -1.17629185e-01, 2.66471505e-02, 1.74520001e-01,
          -6.30041631e-03, 8.78975317e-02, -4.49910620e-03,
          4.40307111e-02, -8.43388587e-02, -1.15544856e-01,
          -5.16756950e-03, 5.10778688e-02, -2.38412600e-02,
          6.52366364e-03, -2.97296830e-02, 3.34373377e-02,
          -7.83957317e-02, -9.74816531e-02, -1.94639305e-03,
          4.67714816e-02, -2.30976529e-02, 1.75655596e-02,
          -2.29847562e-02, 3.83785106e-02, -6.94697127e-02,
          -9.45998132e-02, 5.70345856e-03, 1.25738218e-01,
          -2.31128819e-02, 3.55127826e-02, 2.40450054e-02,
          7.80216157e-02, -6.21459484e-02, -9.30669680e-02,
          2.80945725e-03, 6.56882748e-02, -2.58611217e-02,
          1.26396660e-02, 1.28941722e-02, 7.08870143e-02,
          -6.25909194e-02, -9.13305432e-02, -2.56778169e-02,
          -3.49186324e-02, -2.86224708e-02, 7.20089814e-03,
          -2.87499446e-02, 4.44121398e-02, -6.61240220e-02,
          -9.37154815e-02, 9.13999882e-03, 1.20036602e-01,
          -1.67316012e-02, 7.36717433e-02, -2.08557285e-02,
          3.53712626e-02, -7.70891383e-02, -1.05746925e-01,
          -1.47556975e-01, 1.11147439e+00, -9.42198709e-02,
          -2.04028919e-01, -2.20480129e-01, -2.24782497e-01,
          -2.20406130e-01 ]
      - [ 2.15462878e-01, 2.36827403e-01, 3.51900458e-01,
          -2.40189716e-01, -1.25706727e-02, -7.16725662e-02,
          -6.57783402e-03, -1.57215130e-02, -1.62001699e-02,
          -6.57445844e-03, -6.57445844e-03, -6.53423369e-03,
          -2.53330972e-02, -6.57445844e-03, -6.57445844e-03,
          7.33615384e-02, 3.68759356e-04, -6.57445844e-03,
          -6.57445844e-03, -1.27722546e-01, -2.81788874e-02,
          -2.38586545e-01, -4.91868816e-02, 5.99084683e-02,
          2.86402050e-02, 5.75128831e-02, 2.65118387e-02,
          -6.12961613e-02, 2.93132495e-02, -1.35387093e-01,
          -1.80454310e-02, 1.35181323e-01, 3.44477326e-01,
          7.93638676e-02, 1.37565464e-01, -1.09206155e-01,
          1.91350852e-03, -1.29796728e-01, 3.50170420e-03,
          7.10695460e-02, 1.24567747e-01, 6.21138290e-02, 1.21003352e-01,
          -5.35688996e-02, 8.08629245e-02, -1.09577738e-01,
          -1.06155248e-02, -8.04203283e-03, -5.99403568e-02,
          6.50387444e-03, 4.00851294e-03, 4.90234746e-03, 1.44998625e-01,
          -8.62246156e-02, -4.60842624e-02, -1.20242253e-01,
          -2.96827912e-01, -1.67336483e-02, -3.46789174e-02,
          6.28070682e-02, 2.09833369e-01, -7.57429525e-02,
          -7.42820352e-02, 1.59756863e-03, -4.01948914e-02,
          2.05091201e-03, -6.38681091e-03, 1.41113857e-02,
          1.39182642e-01, -8.51195157e-02, -8.69916230e-02,
          2.37085782e-02, -1.83485504e-02, 2.43378561e-02,
          -1.96777843e-02, 9.04937740e-03, 1.16398774e-01,
          -1.05853871e-01, -8.14600363e-02, 1.95335243e-02,
          -1.01717718e-01, 3.13091651e-02, -6.02123067e-02,
          -1.85483322e-02, 7.32437521e-02, -1.26942962e-01,
          -5.33376001e-02, 2.42894050e-03, 9.04664397e-03,
          4.59805131e-03, -4.09947569e-03, -3.94801609e-03,
          -4.07919055e-03, -3.94708104e-03 ]
      - [ 1.75162807e-01, -5.96196890e-01, 1.48496823e-02,
          -2.57036369e-02, 5.30547798e-02, -3.71670201e-02,
          -3.71891782e-02, -3.44650187e-02, 1.07892985e-02,
          -3.71891782e-02, -3.71891782e-02, -3.51670273e-02,
          8.03216621e-02, -3.71891782e-02, -3.71891782e-02,
          8.25127736e-02, -1.73823200e-02, -3.71891782e-02,
          -3.71891782e-02, 6.89397931e-01, -3.43049280e-02,
          -5.17711006e-02, -1.36066256e-02, 1.11600697e-01,
          -3.67729478e-02, 1.58148199e-01, 5.41761704e-02,
          -1.22121349e-01, 1.44836485e-01, -1.30073085e-01,
          -2.72785984e-02, 1.02158129e-01, -6.65849298e-02,
          1.53730035e-01, 3.12228724e-02, -1.27551511e-01,
          1.40032575e-01, -1.32562369e-01, -1.74831934e-02,
          9.48580503e-02, -1.10747769e-01, 1.51386037e-01,
          9.49212626e-05, -1.27054721e-01, 1.47704944e-01,
          -1.33691967e-01, -3.39715183e-03, 1.13821097e-01,
          -7.01038092e-02, 1.50458440e-01, -2.74971090e-02,
          -1.35152459e-01, 1.37580976e-01, -1.35769203e-01,
          2.27271579e-03, 1.04525864e-01, -1.35272920e-01,
          1.47183090e-01, -6.61091283e-02, -1.26704305e-01,
          1.57804653e-01, -1.33483037e-01, 3.33763682e-03,
          8.16796422e-02, -2.07934514e-01, 1.37756109e-01,
          -9.17859599e-02, -1.18071303e-01, 1.63031518e-01,
          -1.28405333e-01, -2.94972863e-03, 7.99728408e-02,
          -1.81053579e-01, 1.35575801e-01, -6.29663467e-02,
          -1.14755295e-01, 1.65452212e-01, -1.22760855e-01,
          -1.42614180e-02, 9.33532268e-02, -9.02983993e-02,
          1.47060707e-01, 1.50627615e-02, -1.16244316e-01,
          1.46399647e-01, -1.28184840e-01, -2.71949004e-02,
          -3.30845267e-02, 2.71277070e-01, -1.94271170e-02,
          -5.05969301e-02, -5.57224900e-02, -5.67401722e-02,
          -5.57057634e-02 ]
      - [ 6.54959902e-02, -4.68637735e-01, 5.23815155e-01,
          1.56775117e-02, -2.71115806e-02, 3.58464420e-02,
          3.58464420e-02, 3.56990285e-02, 2.72354931e-02, 3.58464420e-02,
          3.58464420e-02, -3.00399028e-02, -2.06843287e-01,
          3.58464420e-02, 3.58464420e-02, 7.57817104e-02,
          -1.08260624e-01, 3.58464420e-02, 3.58464420e-02,
          -1.53996274e-01, -1.65771078e-02, -7.59569407e-02,
          5.69466799e-02, 8.76693279e-02, 2.75809448e-02, 9.91732255e-02,
          6.52818829e-02, -1.38962477e-01, 2.83269197e-01,
          -1.80600584e-01, -1.34231612e-01, 1.43920019e-01,
          2.54235923e-01, 1.14686437e-01, 1.33910164e-01,
          -1.73730806e-01, 2.57308960e-01, -1.78020969e-01,
          -1.12834252e-01, 1.03777051e-01, 1.20701410e-01,
          1.06661774e-01, 1.24174923e-01, -1.28960550e-01,
          3.10197890e-01, -1.65730610e-01, -1.25457779e-01,
          7.16023222e-02, 5.31989560e-02, 5.41425683e-02,
          -1.24853216e-02, -9.33148712e-02, 3.33221912e-01,
          -1.50287688e-01, -1.65401980e-01, -9.98584181e-02,
          -3.71035844e-01, 1.12566026e-02, -1.43435389e-01,
          -8.13178346e-03, 4.20003086e-01, -1.42237574e-01,
          -1.98491529e-01, -9.46693355e-04, -2.09326804e-01,
          1.68645233e-02, -1.55034855e-01, -3.95028703e-02,
          3.90600652e-01, -1.45727023e-01, -2.15956613e-01,
          5.36350459e-02, -4.97415662e-02, 5.81607670e-02,
          -3.90108116e-02, -6.62278607e-02, 3.58753204e-01,
          -1.58015788e-01, -2.11273715e-01, 6.11272566e-02,
          -4.23383452e-02, 7.81486332e-02, 4.11778130e-03,
          -1.02303766e-01, 3.12092274e-01, -1.75336525e-01,
          -1.75521523e-01, -2.28956668e-03, 7.86599517e-02,
          -1.04797818e-02, -1.64864529e-02, -1.64686628e-02,
          -1.64667387e-02, -1.64686926e-02 ]
      - [ 5.00118971e-01, -2.77494695e-02, -1.33171275e-01,
          -2.01515302e-01, 3.45303744e-01, -3.16302896e-01,
          9.23559517e-02, 9.95314270e-02, 2.11545035e-01, 9.27592739e-02,
          9.27592739e-02, 9.80338231e-02, 2.64266104e-01, 9.27592739e-02,
          9.27592739e-02, 1.21991277e-01, 5.19610010e-03, 9.27592739e-02,
          9.27592739e-02, 2.26744175e-01, -3.08523238e-01,
          -5.38967252e-01, -9.95412648e-01, 1.93910114e-02,
          7.34104365e-02, 2.54184715e-02, 1.00968301e-01,
          -5.62319681e-02, 1.51478657e-02, -5.47690392e-02,
          1.14612337e-02, 1.53361214e-02, 1.45715596e-02, 1.51654081e-02,
          4.95754071e-02, -5.98071292e-02, 1.11748101e-02,
          -5.46980500e-02, 1.66047662e-02, -6.67083223e-05,
          -6.37880117e-02, 8.34601372e-03, -4.12616087e-03,
          -5.41948080e-02, 2.07154620e-02, -4.89395857e-02,
          2.70313807e-02, 1.89429596e-02, 5.29968366e-03, 1.13322148e-02,
          1.40873855e-02, -5.48074804e-02, 1.90176610e-02,
          -4.31478471e-02, 3.10877785e-02, 1.50577277e-02,
          1.94528848e-02, 1.19302981e-02, 1.49528645e-02,
          -4.58139889e-02, 3.12851146e-02, -4.25603352e-02,
          2.99798902e-02, 1.13759981e-02, -3.95175442e-02,
          1.71014182e-02, 2.55922340e-02, -5.84797934e-02,
          2.21732799e-02, -4.94150892e-02, 2.10963096e-02,
          6.88467128e-03, -4.88284603e-02, 1.85370762e-02,
          3.67677398e-02, -7.20115453e-02, 1.36182057e-02,
          -5.55268042e-02, 1.29502499e-02, 2.42191087e-02,
          3.11203916e-02, 2.54230034e-02, 9.30540189e-02,
          -6.34123683e-02, 1.25119574e-02, -5.79732284e-02,
          8.94525461e-03, -7.31008798e-02, 6.12125456e-01,
          -4.51725386e-02, -1.14466339e-01, -1.25581816e-01,
          -1.28260851e-01, -1.25542864e-01 ]
      - [ -2.07495759e-05, -3.05904038e-02, 7.67155439e-02,
          2.79964488e-02, 6.59126192e-02, 2.78456584e-02, 2.78587900e-02,
          2.78456584e-02, 5.01898825e-02, 2.78456584e-02, 2.78456584e-02,
          2.78456584e-02, 8.09653252e-02, 2.78456584e-02, 2.78456584e-02,
          3.58603410e-02, 1.02208313e-02, 2.78456584e-02, 2.78456584e-02,
          5.55219501e-02, -2.84121931e-01, -7.53016397e-02,
          -2.91817874e-01, -1.63833611e-02, -5.28157055e-02,
          -1.51568064e-02, -3.86533998e-02, 6.19374998e-02,
          1.11396844e-02, 4.15937081e-02, -2.24004183e-02,
          -1.28264055e-02, -5.68177514e-02, -1.02531621e-02,
          -2.26791985e-02, 5.75171225e-02, 6.17907150e-03,
          4.03049923e-02, -2.50213668e-02, -4.39212192e-03,
          -1.99389476e-02, -3.89828952e-03, 2.91748252e-03,
          5.71625382e-02, 4.43767058e-03, 4.07348871e-02,
          -2.48262398e-02, 1.73320982e-03, 4.69585508e-03,
          -2.22894223e-03, 1.14242230e-02, 5.73033169e-02,
          4.41406155e-03, 4.18116413e-02, -2.33270135e-02,
          -1.08968038e-02, -3.51630263e-02, -7.40258116e-03,
          -1.04426071e-02, 5.81065491e-02, 6.84239017e-03,
          4.19143625e-02, -2.25311127e-02, -1.48393819e-02,
          -7.31388107e-02, -1.21822516e-02, -3.90112624e-02,
          5.81302531e-02, 8.99828132e-03, 4.25956212e-02,
          -2.05269549e-02, -1.29803652e-02, -6.28382564e-02,
          -1.41333463e-02, -4.80993427e-02, 6.40162751e-02,
          1.39556034e-02, 4.25890647e-02, -2.03505978e-02,
          -1.31372642e-02, -5.88218160e-02, -1.49652837e-02,
          -4.43094224e-02, 6.60643652e-02, 1.60333216e-02,
          4.32340838e-02, -2.03975681e-02, -8.64548236e-03,
          7.05942512e-02, -1.31594529e-03, -1.35164289e-02,
          -1.55835599e-02, -1.59673486e-02, -1.55655071e-02 ]
      - [ 5.05393147e-02, 2.27840751e-01, -2.26958737e-01,
          3.74880955e-02, 6.49365187e-02, 6.87310696e-02, 2.55050752e-02,
          -2.62129586e-03, 8.61056801e-03, -3.19649489e-03,
          -3.72090959e-03, -4.27303556e-03, -3.91602740e-02,
          -3.69399553e-03, -3.72090959e-03, -4.32910547e-02,
          -4.42220159e-02, -2.82626739e-03, -3.72090959e-03,
          -3.51283103e-02, -5.70988469e-02, -4.43253201e-03,
          -5.58583578e-03, -1.58597417e-02, 1.76521800e-02,
          -2.63979156e-02, -3.64173029e-04, 3.76342610e-02,
          -6.45359093e-03, 1.90510843e-02, -7.31682312e-03,
          -1.29721323e-02, 2.19978653e-02, -2.50529740e-02,
          5.24723437e-03, 3.66529152e-02, -1.10890213e-02,
          1.82277318e-02, -1.15597462e-02, -1.35170138e-02,
          1.62935480e-02, -2.50001848e-02, 1.66432688e-03,
          3.70485634e-02, -1.10973213e-02, 1.79517772e-02,
          -1.21910172e-02, -1.41520845e-02, 9.17149801e-03,
          -2.55970322e-02, -4.92251478e-03, 3.71960588e-02,
          -5.75396558e-03, 1.88909564e-02, -8.24878924e-03,
          -1.66219156e-02, 3.00366874e-03, -2.76218429e-02,
          -1.80403441e-02, 3.87005433e-02, 4.46091231e-04,
          1.97691377e-02, -5.85417310e-03, -1.67913027e-02,
          -1.09074423e-02, -2.79679168e-02, -2.44213752e-02,
          3.93985100e-02, 2.49492005e-03, 1.95494480e-02,
          -6.46530651e-03, -1.69158727e-02, -1.18884873e-02,
          -2.77607646e-02, -2.36541331e-02, 4.03883122e-02,
          3.53858923e-03, 1.90033466e-02, -6.94988389e-03,
          -1.54815624e-02, 2.41584168e-03, -2.69065611e-02,
          -1.33035807e-02, 3.85818556e-02, 1.40090327e-04,
          1.91873368e-02, -6.19916432e-03, 1.66216902e-02,
          -3.79733518e-02, 2.99828919e-03, 4.40105097e-03,
          4.59977239e-03, 4.75285109e-03, 4.59969556e-03 ]
      - [ 1.05028093e-01, 1.73167661e-01, -1.72900036e-01,
          4.60212566e-02, 6.49531186e-02, 1.19025208e-01, 2.77308058e-02,
          -1.61202773e-02, -3.16018099e-03, -3.46339005e-03,
          -3.87930591e-03, -2.52303611e-02, -7.27001578e-03,
          -7.98644777e-03, -3.87930591e-03, -6.75165355e-02,
          -4.70193988e-03, -2.78604422e-02, -3.87930591e-03,
          -4.13575061e-02, -4.79482068e-03, -1.37588292e-01,
          -4.33796318e-03, -1.10930549e-02, 1.90290753e-02,
          -1.86781380e-02, 1.11597804e-02, -4.43507265e-03,
          1.76422426e-03, -2.55841967e-02, -7.75722088e-03,
          -4.40333923e-03, 3.83403301e-02, -1.69692058e-02,
          1.59743112e-02, -6.00799033e-03, 7.66197219e-04,
          -2.51224171e-02, -7.25692557e-03, -1.01049815e-03,
          5.13373092e-02, -1.41341388e-02, 2.80923061e-02,
          -7.30784889e-03, -1.43248471e-03, -2.45771799e-02,
          -6.98005315e-03, -3.21796048e-03, 4.39349599e-02,
          -1.53949382e-02, 2.20076349e-02, -6.86748652e-03,
          -2.19221387e-04, -2.50112824e-02, -7.90934544e-03,
          -8.65019485e-03, 2.64221039e-02, -1.68436486e-02,
          1.77248083e-02, -5.38450386e-03, 4.41135751e-04,
          -2.54978649e-02, -9.05460399e-03, -4.91937855e-03,
          4.01756465e-02, -1.60631947e-02, 2.16225386e-02,
          -5.33099798e-03, 3.07963683e-06, -2.53467746e-02,
          -9.06677172e-03, -2.19391403e-03, 5.10793105e-02,
          -1.43287787e-02, 3.04546654e-02, -5.74819930e-03,
          -1.42736500e-03, -2.50178911e-02, -8.41360725e-03,
          -3.37898009e-03, 4.46538329e-02, -1.64832138e-02,
          1.92286894e-02, -6.10679761e-03, -7.34212517e-05,
          -2.53690667e-02, -8.14275071e-03, -8.78088409e-04,
          -4.36257245e-03, 1.38056360e-03, 1.00849883e-03,
          9.55517578e-04, 9.40446567e-04, 9.55637253e-04 ]
      - [ 2.80454289e-02, 6.68561459e-02, -2.90513843e-01,
          5.88664562e-02, 3.93132120e-02, 1.46354616e-01, 9.53431334e-03,
          -5.15269395e-03, 2.27059727e-03, -5.07313199e-03,
          -5.46035077e-03, -5.27726207e-03, -1.75010925e-03,
          -5.45612164e-03, -5.46035077e-03, -2.62898696e-03,
          -5.31384582e-03, -5.43290563e-03, -5.46035077e-03,
          7.84087647e-03, -5.30170603e-03, -5.33961644e-03,
          -5.46035077e-03, -1.20293628e-03, 5.42034879e-02,
          -1.57665275e-02, 2.74160877e-02, -1.82608776e-02,
          2.35117953e-02, -6.40580654e-02, -1.63163580e-02,
          -2.43678875e-03, 5.19279391e-02, -1.62704196e-02,
          2.55823322e-02, -1.80524103e-02, 2.41567455e-02,
          -6.30199686e-02, -1.41642671e-02, -2.80430890e-04,
          5.60770258e-02, -1.56017654e-02, 2.70996634e-02,
          -1.56497844e-02, 2.60768384e-02, -6.23367280e-02,
          -1.35818450e-02, 4.38739429e-04, 5.77436015e-02,
          -1.39963422e-02, 3.12711746e-02, -1.73502471e-02,
          2.56397612e-02, -6.21296428e-02, -1.41443638e-02,
          2.21114093e-03, 6.12368323e-02, -1.23973535e-02,
          3.59696597e-02, -1.81181822e-02, 2.41617896e-02,
          -6.26394227e-02, -1.53766982e-02, -3.16540099e-04,
          6.01703078e-02, -1.29466942e-02, 3.70290093e-02,
          -1.92945395e-02, 2.27822699e-02, -6.37281388e-02,
          -1.68709438e-02, -1.49336562e-03, 5.67525700e-02,
          -1.38257444e-02, 3.53491195e-02, -1.83615796e-02,
          2.31595822e-02, -6.47554025e-02, -1.81431528e-02,
          -1.55388704e-03, 5.60333878e-02, -1.45223001e-02,
          3.20741236e-02, -1.91749725e-02, 2.23977063e-02,
          -6.45476431e-02, -1.77863818e-02, -3.94751609e-04,
          -7.78597128e-03, -9.23573971e-04, 1.16828352e-03,
          2.73038796e-03, 2.46900832e-03, 2.73662363e-03 ]
      - [ 2.85705435e-03, 1.44534111e-01, -1.37466177e-01,
          5.34900278e-02, 7.33077154e-02, 1.12917252e-01, 4.01098393e-02,
          1.48057770e-02, 2.66695283e-02, 1.47968056e-02, 1.41939865e-02,
          1.44748846e-02, 2.02074274e-02, 1.42003344e-02, 1.41939865e-02,
          1.81419458e-02, 1.44912358e-02, 1.42100416e-02, 1.41939865e-02,
          2.72510052e-02, -6.24081120e-02, -2.04748631e-01,
          -2.44424030e-01, 3.12623801e-03, 2.82215904e-02,
          -2.17077555e-03, 1.82892568e-02, -1.78906769e-02,
          3.33160930e-03, -2.63403393e-02, -4.86481050e-03,
          8.20627552e-04, 2.25679986e-02, -3.62138194e-03,
          1.45096332e-02, -1.72845498e-02, 4.06560116e-03,
          -2.58985050e-02, -4.36099060e-03, 2.29076319e-03,
          2.58127805e-02, -3.68702691e-03, 1.46568194e-02,
          -1.50869889e-02, 5.03108045e-03, -2.57026926e-02,
          -4.39638179e-03, 3.62750725e-03, 2.86599416e-02,
          -2.94581358e-03, 1.58802960e-02, -1.59793664e-02,
          4.38541081e-03, -2.62501277e-02, -5.61669562e-03,
          3.24663054e-03, 2.66989637e-02, -1.92276295e-03,
          1.74163096e-02, -1.57713648e-02, 3.71280639e-03,
          -2.66795196e-02, -6.42541936e-03, 3.73150711e-03,
          2.80239414e-02, -1.62211910e-03, 1.81595404e-02,
          -1.69773549e-02, 2.86150258e-03, -2.76506580e-02,
          -7.25864060e-03, 3.34776030e-03, 2.80101039e-02,
          -1.12416269e-03, 1.98875982e-02, -1.60029866e-02,
          3.49708134e-03, -2.79903989e-02, -7.25031225e-03,
          4.20982623e-03, 3.03813629e-02, -1.10992196e-03,
          2.02121865e-02, -1.75924264e-02, 2.70337448e-03,
          -2.73520257e-02, -6.55048434e-03, -1.16337475e-03,
          7.50550814e-03, -1.17081404e-03, -1.28003641e-03,
          -1.29495119e-03, -1.30146043e-03, -1.29487924e-03 ]
      - [ 1.23867549e-01, 7.08069950e-02, -7.00189531e-01,
          8.76732171e-02, 8.16595703e-02, 3.25165659e-01, 3.62908375e-03,
          -8.25059321e-03, 5.06192446e-02, -4.44961898e-03,
          -7.33902724e-03, -3.45982388e-02, 1.96288433e-02,
          -7.31057674e-03, -7.33902724e-03, 6.90237479e-03,
          -6.60250802e-03, -7.32421456e-03, -7.33902724e-03,
          7.30407983e-02, -7.02742534e-03, -3.78527567e-02,
          -7.37072900e-03, 4.01622290e-03, 4.33349684e-02,
          6.97741471e-03, 4.59523909e-02, -7.04028308e-02,
          6.63117412e-03, -6.47985712e-02, -1.15386099e-02,
          2.63866107e-03, 4.51088399e-02, 6.35530567e-03, 4.26056422e-02,
          -7.43298382e-02, 7.38188811e-03, -6.85755983e-02,
          -9.89400968e-03, 1.29567152e-02, 6.07503504e-02,
          1.10838981e-02, 5.34987077e-02, -7.24467859e-02,
          8.29235651e-03, -6.30351305e-02, -2.25893804e-03,
          1.92571487e-02, 7.58816674e-02, 1.13354940e-02, 5.23315445e-02,
          -6.41068518e-02, 1.37943206e-02, -5.96877933e-02,
          -2.28164741e-03, 1.46870771e-02, 6.03753775e-02,
          1.31323133e-02, 5.45230955e-02, -5.83616830e-02,
          1.42051522e-02, -5.95133007e-02, -6.01389632e-03,
          4.80414322e-03, 5.11053577e-02, 7.07121473e-03, 4.73773628e-02,
          -5.32198623e-02, 1.29762776e-02, -5.73654771e-02,
          -7.00303027e-03, -1.22128520e-04, 4.41572107e-02,
          4.33913758e-03, 4.65106368e-02, -5.19207120e-02,
          1.38897346e-02, -5.46365194e-02, -6.64280448e-03,
          3.94925615e-03, 4.92932759e-02, 6.63413759e-03, 5.08244596e-02,
          -5.75786494e-02, 1.06887249e-02, -5.66335656e-02,
          -8.36054236e-03, -4.01582860e-04, 6.41870033e-03,
          -1.63817592e-03, -1.10013655e-03, -1.09303207e-03,
          -1.09276536e-03, -1.09302322e-03 ]
      - [ 1.47551283e-01, 6.34052828e-02, -3.50601435e-01,
          3.66639420e-02, 2.52676327e-02, 1.02913946e-01,
          -4.67820355e-04, -3.36321862e-03, 1.61917992e-02,
          -3.33068916e-03, -4.35501477e-03, -3.88055970e-03,
          5.20537747e-03, -4.34427895e-03, -4.35501477e-03,
          2.29647011e-03, -4.09391103e-03, -4.33044881e-03,
          -4.35501477e-03, 2.75119618e-02, -4.24454827e-03,
          -3.09306849e-02, -4.35501477e-03, -2.46350206e-02,
          7.51895383e-02, -4.43381369e-02, 3.44626084e-02,
          4.25170781e-03, -1.02709122e-02, -3.01800445e-02,
          -2.79339012e-02, -2.30605211e-02, 7.50037208e-02,
          -4.44067828e-02, 3.32673080e-02, 5.04831783e-03,
          -9.36280470e-03, -2.85438504e-02, -2.58554406e-02,
          -2.07757652e-02, 8.36169869e-02, -4.29069810e-02,
          3.87713276e-02, 8.43616482e-03, -7.52611365e-03,
          -2.82021835e-02, -2.55966764e-02, -1.81236602e-02,
          8.90395120e-02, -4.12880294e-02, 4.23580520e-02,
          5.79460384e-03, -8.94882437e-03, -2.97804996e-02,
          -2.76817102e-02, -2.04331707e-02, 8.15258697e-02,
          -3.92020494e-02, 4.69035208e-02, 2.77954270e-03,
          -1.21887466e-02, -3.17410603e-02, -3.01326010e-02,
          -1.70332007e-02, 8.73020887e-02, -3.78069803e-02,
          4.89115193e-02, 5.14658343e-04, -1.40087102e-02,
          -3.28744948e-02, -3.07624824e-02, -1.66923888e-02,
          9.06031057e-02, -3.78017202e-02, 5.00697233e-02,
          3.03524849e-03, -1.21573890e-02, -3.24287862e-02,
          -3.00122630e-02, -1.78875998e-02, 8.93943459e-02,
          -3.99020314e-02, 4.56193388e-02, 3.13287694e-03,
          -1.18839471e-02, -3.12134195e-02, -2.94508804e-02,
          -1.94845162e-03, 1.36454049e-02, -2.01569148e-03,
          -2.38147471e-03, -2.42948555e-03, -2.44091754e-03,
          -2.42939219e-03 ]
      - [ 1.01160742e-01, 2.89194703e-01, 7.20144249e-04,
          -1.23827316e-01, 5.05097024e-02, 1.12928540e-01,
          2.50334963e-02, -1.81737412e-02, -1.80527568e-02,
          -1.18928002e-02, -1.26073724e-02, -1.26461014e-02,
          -3.46374139e-02, -1.25772376e-02, -1.26073724e-02,
          -5.60401287e-03, -1.89020392e-02, -1.13228764e-02,
          -1.26073724e-02, -1.17946379e-01, -2.21566707e-02,
          -1.01769812e-01, -3.22160646e-02, -1.48316724e-02,
          3.34896743e-02, -2.94782594e-02, 9.16946307e-03,
          1.25445863e-02, -1.18350126e-02, 7.89471451e-05,
          -2.28563533e-03, -1.02792811e-02, 4.65433560e-02,
          -2.67737601e-02, 1.94225106e-02, 1.01272464e-02,
          -1.42352907e-02, -9.73016897e-04, -5.56306727e-03,
          -1.02981878e-02, 4.77732755e-02, -2.64353286e-02,
          2.35361978e-02, 1.10773714e-02, -1.47962244e-02,
          -8.93431948e-04, -6.93574268e-03, -1.36134094e-02,
          3.76351066e-02, -2.93898769e-02, 1.42704770e-02,
          1.26500847e-02, -1.22452285e-02, 5.21940956e-06,
          -6.43616915e-03, -2.07685102e-02, 1.99341085e-02,
          -3.28080393e-02, 3.40172555e-03, 1.49563821e-02,
          -8.66921525e-03, 1.46596227e-03, -4.17021802e-03,
          -1.57412570e-02, 2.61201803e-02, -3.22959125e-02,
          1.61091646e-03, 1.48926200e-02, -8.28729197e-03,
          2.92505650e-03, -8.28752454e-05, -1.44047234e-02,
          2.88685393e-02, -3.13213095e-02, 2.01572140e-04,
          1.75968129e-02, -6.19483273e-03, 3.42588383e-03,
          2.71735690e-03, -1.39376298e-02, 2.92868894e-02,
          -3.05102598e-02, 1.90560927e-03, 1.43464422e-02,
          -8.99561495e-03, 2.11629737e-03, 1.39042758e-03,
          3.41230491e-03, -2.91924197e-02, 4.12711222e-03,
          5.37626818e-03, 5.42196911e-03, 5.43288561e-03, 5.42188296e-03 ]
      - [ 4.19631362e-01, -1.30002961e-01, -3.40332955e-01,
          1.10775203e-01, 9.28853825e-03, 7.48402178e-01,
          -5.74726127e-02, -6.22524619e-02, -3.09268292e-02,
          -6.18554018e-02, -6.38585761e-02, -6.30795136e-02,
          -4.84540723e-02, -6.34450838e-02, -6.38585761e-02,
          -5.20707555e-02, -6.33913949e-02, -5.82854934e-02,
          -6.38585761e-02, -3.04370746e-03, -6.35702834e-02,
          6.55200854e-02, -6.38585761e-02, -8.35224837e-02,
          3.52990806e-01, -2.78870404e-01, 4.13849205e-02,
          4.75946851e-02, -3.17557693e-01, -6.98787533e-03,
          8.33685175e-02, -7.59566352e-02, 3.25755715e-01,
          -2.83434868e-01, 1.19940965e-02, 4.06971611e-02,
          -3.23554099e-01, -8.93200748e-03, 7.48864114e-02,
          -8.27181265e-02, 2.84772336e-01, -2.73496807e-01,
          3.50152072e-03, 7.60914758e-02, -2.90425748e-01,
          6.75748743e-04, 9.89895836e-02, -3.96913514e-02,
          3.55587125e-01, -2.49068633e-01, 4.63527367e-02,
          5.95804416e-02, -2.51962602e-01, 2.49876454e-03,
          1.15254819e-01, -1.80479735e-02, 4.40810472e-01,
          -2.08623931e-01, 1.65045172e-01, 1.86193902e-02,
          -2.63953030e-01, 1.49543257e-03, 1.27613947e-01,
          5.47888875e-03, 4.58247423e-01, -2.05802947e-01,
          1.68489665e-01, 6.12021249e-04, -2.94000596e-01,
          -1.14334673e-02, 1.16579622e-01, -3.75378765e-02,
          3.59255075e-01, -2.20444307e-01, 1.20579138e-01,
          1.91143602e-02, -3.08326364e-01, -2.08385885e-02,
          9.46181267e-02, -2.94073131e-02, 4.22023624e-01,
          -2.43851542e-01, 1.04333527e-01, 3.78289036e-02,
          -3.06741059e-01, -1.70359667e-02, 6.95025176e-02,
          -8.54431838e-03, 7.48783648e-02, -9.61200520e-03,
          -1.39096994e-02, -1.42516699e-02, -1.43093662e-02,
          -1.42512647e-02 ]
      - [ 2.95112193e-01, 8.37748572e-02, 2.18188819e-02, 6.67291135e-02,
          -3.78871290e-03, 3.31836671e-01, -2.18737591e-02,
          -2.32063960e-02, 8.29105452e-03, -2.35141199e-02,
          -2.81521045e-02, -2.77017020e-02, -9.25169066e-02,
          -2.79065520e-02, -2.81521045e-02, -9.13124904e-03,
          -1.56576768e-01, -2.22890526e-02, -2.81521045e-02,
          -1.12015203e-01, -8.14206600e-02, -9.30135846e-02,
          -2.81521045e-02, -9.29553360e-02, 2.08814025e-01,
          -1.67729124e-01, 7.87168145e-02, 1.21974722e-01,
          -1.75341014e-02, -5.53180231e-03, -1.23892896e-01,
          -8.29260871e-02, 2.05975562e-01, -1.66864038e-01,
          6.70822039e-02, 1.26357615e-01, -1.06344428e-02,
          -3.95816378e-03, -1.22163668e-01, -8.81986767e-02,
          1.88113853e-01, -1.67283714e-01, 5.87926768e-02,
          1.42410442e-01, 2.01574061e-03, -4.45428537e-03,
          -1.21155053e-01, -8.41199607e-02, 1.84781134e-01,
          -1.68029740e-01, 4.56215926e-02, 1.33717492e-01,
          -2.28921557e-03, -4.12155502e-03, -1.21182352e-01,
          -9.74473879e-02, 1.55602247e-01, -1.67356983e-01,
          3.65317725e-02, 1.27975464e-01, -5.91582805e-03,
          -4.96034324e-03, -1.23387642e-01, -7.96537548e-02,
          1.82857946e-01, -1.60502121e-01, 6.03072606e-02,
          1.23308674e-01, -1.06657688e-02, -8.06441437e-03,
          -1.29290208e-01, -7.79976994e-02, 2.10057050e-01,
          -1.55810624e-01, 9.21029598e-02, 1.29134327e-01,
          -8.10915790e-03, -1.02452533e-02, -1.31371170e-01,
          -7.78025165e-02, 2.17405230e-01, -1.58548146e-01,
          9.71220359e-02, 1.21349759e-01, -1.77561976e-02,
          -8.70925840e-03, -1.29509702e-01, 2.40836263e-04,
          -1.58627369e-02, -1.25627615e-03, 3.59147694e-03,
          4.45394311e-03, 4.37737955e-03, 4.45533777e-03 ]
      - [ 1.83325291e-01, 9.49845314e-02, -2.27357522e-01,
          -1.16056047e-01, 4.26901318e-02, 1.53162107e-01,
          5.04274704e-02, 5.00078537e-02, 2.79422589e-02, 5.03422581e-02,
          5.03278486e-02, 5.02737164e-02, -1.12630904e-01,
          5.03424443e-02, 5.03278486e-02, 5.12076579e-02, 8.88547022e-03,
          5.07751182e-02, 5.03278486e-02, -6.91014081e-02,
          -8.17243978e-02, -2.69304723e-01, -1.39174849e-01,
          -2.55192835e-02, 4.83233184e-02, -4.94204611e-02,
          8.73524696e-03, 4.25525233e-02, -1.29244868e-02,
          -3.86665901e-03, -3.37586217e-02, -2.16598529e-02,
          5.47774471e-02, -4.71709892e-02, 1.69952009e-02,
          4.09785919e-02, -1.67067219e-02, -3.87922791e-03,
          -3.54936719e-02, -1.90818422e-02, 6.54496029e-02,
          -4.51293066e-02, 2.36268733e-02, 4.25903574e-02,
          -1.83262322e-02, -5.34051750e-03, -3.62389684e-02,
          -1.66778024e-02, 7.04992339e-02, -4.34279516e-02,
          2.83008069e-02, 3.89696509e-02, -2.05609184e-02,
          -6.23619929e-03, -3.75956595e-02, -1.80602670e-02,
          6.98903576e-02, -4.24205884e-02, 3.10745668e-02,
          3.76004800e-02, -2.13629156e-02, -6.22083107e-03,
          -3.60997654e-02, -1.63093600e-02, 6.47719949e-02,
          -4.27690595e-02, 2.46093776e-02, 3.73262465e-02,
          -1.95835847e-02, -5.38043818e-03, -3.26152667e-02,
          -1.84171144e-02, 5.80578782e-02, -4.38317060e-02,
          1.85953509e-02, 4.02563624e-02, -1.62272528e-02,
          -4.74228151e-03, -3.13387364e-02, -1.98768135e-02,
          5.44883162e-02, -4.66056354e-02, 1.27022304e-02,
          4.10336182e-02, -1.40463505e-02, -4.18456690e-03,
          -3.30976918e-02, 9.00873623e-04, 2.14379048e-03,
          -6.76334836e-04, -7.11547793e-04, -5.07394085e-04,
          -6.45631517e-04, -5.03763673e-04 ]
      - [ -7.88334087e-02, 1.85188577e-01, -1.19345412e-01,
          6.40432313e-02, 7.11478665e-02, 8.43817070e-02, 3.84083427e-02,
          5.95719973e-03, 7.15234689e-03, 5.77370729e-03, 5.43107558e-03,
          5.50106680e-03, 2.01619347e-03, 5.44617418e-03, 5.43107558e-03,
          9.43374168e-03, -8.22521839e-03, 6.04077522e-03,
          5.43107558e-03, 3.54078226e-02, -1.54358983e-01,
          -3.91690545e-02, -1.42259896e-01, -1.13463774e-02,
          2.17234548e-02, -1.90031622e-02, 1.10015925e-02,
          2.12672986e-02, -5.97113394e-04, 2.58566369e-03,
          -2.19635852e-02, -1.06462780e-02, 1.86674260e-02,
          -1.85890794e-02, 1.11648357e-02, 2.14163214e-02,
          -6.63845218e-04, 2.55758548e-03, -2.24436782e-02,
          -1.07126730e-02, 1.93849374e-02, -1.86685249e-02,
          1.14993593e-02, 2.20567863e-02, -6.03294407e-04,
          2.45014462e-03, -2.24450380e-02, -1.01547213e-02,
          2.26365682e-02, -1.86111759e-02, 1.24424985e-02,
          2.12216955e-02, -1.31559651e-03, 2.93776346e-03,
          -2.13957634e-02, -1.15463594e-02, 1.90134216e-02,
          -1.94322616e-02, 8.68866313e-03, 2.15405654e-02,
          -3.98529024e-04, 3.50453239e-03, -2.04296000e-02,
          -1.15038082e-02, 1.16750691e-02, -1.93671007e-02,
          5.39283920e-03, 2.15029772e-02, -1.27977517e-04,
          3.30266822e-03, -2.04093046e-02, -1.11077903e-02,
          1.53277628e-02, -1.91141814e-02, 5.62280649e-03,
          2.24325117e-02, 6.49875146e-04, 2.63990043e-03,
          -2.12479439e-02, -1.07932491e-02, 1.69155374e-02,
          -1.89027451e-02, 7.99157191e-03, 2.15946846e-02,
          2.17925161e-04, 2.42265221e-03, -2.19091550e-02,
          -1.11302306e-05, 8.94779048e-04, -1.31816196e-04,
          -1.82574382e-04, -1.89826387e-04, -1.89614249e-04,
          -1.89828002e-04 ]
      - [ -2.60651499e-01, 1.22954242e-01, 7.64608681e-02,
          5.35223493e-03, -2.17947830e-02, -1.19348671e-02,
          -1.20148612e-02, -1.21430848e-02, -1.43413469e-02,
          -1.20184403e-02, -1.20148612e-02, -1.81149524e-02,
          5.19090705e-02, -1.35987317e-02, -1.20148612e-02,
          -3.40310745e-02, 3.89939658e-02, -2.15180870e-02,
          -1.20148612e-02, 1.65220052e-02, 1.07582748e-01,
          5.60424626e-02, -7.61083420e-03, 3.39011028e-02,
          9.81880054e-02, 2.02247296e-02, 1.67726055e-02,
          -1.73843309e-01, 5.26038222e-02, -1.88411906e-01,
          -1.54939562e-03, 3.01629305e-02, 1.61530778e-01,
          2.30192728e-02, 7.25871176e-02, -1.67219326e-01,
          5.32823429e-02, -1.85185984e-01, -4.66578593e-03,
          2.92658005e-02, 1.93004459e-01, 1.90985054e-02, 1.02933936e-01,
          -1.76058352e-01, 3.59701924e-02, -1.86530173e-01,
          -1.55826705e-02, 1.98913943e-02, 1.67638406e-01,
          2.89692562e-02, 1.68163240e-01, -1.86417654e-01,
          2.02966426e-02, -1.92362919e-01, -3.56753990e-02,
          3.99666727e-02, 2.14219138e-01, 4.26277295e-02, 2.25831151e-01,
          -1.90447643e-01, 8.96233600e-03, -1.93805560e-01,
          -3.86086442e-02, 3.82787809e-02, 2.68288612e-01,
          3.51774432e-02, 2.11373955e-01, -1.84668675e-01,
          1.74535159e-02, -1.89915627e-01, -2.92457547e-02,
          2.38795374e-02, 1.68026969e-01, 2.73559950e-02, 1.66961178e-01,
          -1.80277288e-01, 2.90445779e-02, -1.84850633e-01,
          -1.32523254e-02, 1.78209059e-02, 1.00400701e-01,
          1.74458269e-02, 3.68815400e-02, -1.76509514e-01,
          4.45553735e-02, -1.85513094e-01, -1.45928923e-03,
          -1.14720926e-01, 5.76266408e-01, -9.31821987e-02,
          -9.10392478e-02, -9.26611871e-02, -9.20009837e-02,
          -9.26619247e-02 ]
      - [ -1.18774600e-01, -8.32338110e-02, 4.50268202e-02,
          5.52764046e-04, -5.98405413e-02, -5.32951672e-03,
          -5.39464550e-03, -5.06900158e-03, -5.05768508e-02,
          -5.39464550e-03, -5.39464550e-03, -4.80850181e-03,
          7.19888955e-02, -5.39464550e-03, -5.39464550e-03,
          -3.37571558e-03, 4.43622135e-02, -5.39464550e-03,
          -5.39464550e-03, 3.69377583e-02, 8.87332186e-02,
          8.65643546e-02, -5.39464550e-03, 3.71721610e-02,
          5.87343387e-02, 2.70409342e-02, -1.37707246e-02,
          -1.37296900e-01, 6.17265552e-02, -1.55640751e-01,
          1.20921154e-02, 3.03658284e-02, 7.50786364e-02, 2.21715160e-02,
          -1.82879362e-02, -1.33126825e-01, 6.38816282e-02,
          -1.55865461e-01, 1.01693748e-02, 2.47897543e-02,
          5.40674105e-02, 2.39713080e-02, 7.27889175e-03,
          -1.50193512e-01, 4.29309234e-02, -1.61160380e-01,
          -5.44238836e-03, 3.35108861e-02, 1.07442968e-01,
          4.69152853e-02, 1.37966394e-01, -1.63510382e-01,
          1.94640663e-02, -1.65057823e-01, -1.96500123e-02,
          7.57370293e-02, 2.80340552e-01, 6.64025396e-02, 2.28442147e-01,
          -1.62351653e-01, 1.87931284e-02, -1.64047450e-01,
          -2.03162562e-02, 5.67939952e-02, 2.31487274e-01,
          6.23759739e-02, 2.24629894e-01, -1.65999681e-01,
          1.19388085e-02, -1.63231239e-01, -1.70474108e-02,
          2.94533949e-02, 9.31754038e-02, 4.23259288e-02, 1.24344602e-01,
          -1.64960593e-01, 2.61779670e-02, -1.64021075e-01,
          -1.12629989e-02, 2.40981150e-02, 4.56029736e-02,
          2.62420457e-02, 5.54056466e-03, -1.50986671e-01,
          4.47345451e-02, -1.59384057e-01, 7.20421784e-03,
          -8.28983188e-02, 4.57527548e-01, -7.41167814e-02,
          -7.42898658e-02, -7.55604133e-02, -7.51013309e-02,
          -7.55609423e-02 ]
      - [ -6.82482822e-03, -6.72389641e-02, 1.79355755e-01,
          9.40248650e-03, 1.32948337e-02, 8.86026677e-03, 8.85782298e-03,
          8.87004100e-03, 9.63431504e-03, 8.85782298e-03, 8.85782298e-03,
          9.36487596e-03, 3.43429074e-02, 8.85782298e-03, 8.85782298e-03,
          3.56581472e-02, 3.40088718e-02, 8.85782298e-03, 8.85782298e-03,
          4.15525027e-02, -3.98501605e-02, -1.80217609e-01,
          -1.52218178e-01, 1.47119183e-02, 4.71646572e-03,
          1.92861445e-02, 9.79930721e-03, -4.36682627e-02,
          4.62128548e-03, -3.03050205e-02, 7.69958086e-03,
          1.18469736e-02, 1.07745943e-03, 1.81544423e-02, 6.62309164e-03,
          -4.27270010e-02, 7.63059314e-03, -3.02153155e-02,
          9.43194982e-03, 1.24171516e-02, 5.57765784e-03, 1.82721801e-02,
          1.06049962e-02, -4.39949110e-02, 6.22931635e-03,
          -3.03653516e-02, 9.18962248e-03, 1.37294661e-02,
          1.40088582e-02, 1.99590567e-02, 2.11080797e-02,
          -4.52180505e-02, 1.49884168e-03, -3.11261304e-02,
          6.06461428e-03, 1.69480760e-02, 2.36391779e-02, 2.16135364e-02,
          3.06406785e-02, -4.48457487e-02, -1.19261385e-03,
          -3.13951299e-02, 4.72867349e-03, 1.54684810e-02,
          2.71368641e-02, 2.11042967e-02, 3.17770690e-02,
          -4.51603942e-02, -2.17751879e-03, -3.12356353e-02,
          5.27400197e-03, 1.38750793e-02, 2.06332412e-02, 2.00965945e-02,
          2.66979411e-02, -4.51362915e-02, -1.77044026e-03,
          -3.09162084e-02, 5.99545194e-03, 1.31247193e-02,
          1.16399489e-02, 1.90343149e-02, 1.61200631e-02,
          -4.44328561e-02, 4.78006579e-04, -3.07943840e-02,
          6.39196811e-03, -1.23591255e-02, 4.04600017e-02,
          -4.85987496e-03, -5.67430584e-03, -5.83305582e-03,
          -5.90060931e-03, -5.83303301e-03 ]
      - [ -1.02759793e-01, -1.36451364e-01, 5.51193878e-02,
          2.87144398e-03, 1.74439251e-02, -1.87408191e-03,
          -1.85814418e-03, -1.77750271e-03, 3.87007650e-03,
          -1.85814418e-03, -1.85814418e-03, -1.71299337e-03,
          1.79159306e-02, -1.85814418e-03, -1.85814418e-03,
          -1.35818275e-03, 2.03838591e-02, -1.85814418e-03,
          -1.85814418e-03, 1.72156803e-02, 1.04682237e-01,
          1.56739429e-02, 3.76460003e-03, 8.09894726e-02,
          -4.96740565e-02, 1.16725460e-01, -8.73393379e-03,
          -1.58023551e-01, 5.08326069e-02, -8.77281502e-02,
          7.31370747e-02, 6.08304404e-02, -6.29603341e-02,
          1.10698760e-01, -5.01828687e-03, -1.62926495e-01,
          4.50081490e-02, -9.31494832e-02, 6.80653602e-02,
          5.78877628e-02, -5.16393259e-02, 1.10359706e-01,
          1.92640498e-02, -1.76691905e-01, 3.16303894e-02,
          -9.99607891e-02, 5.84752001e-02, 7.25434721e-02,
          4.53668600e-03, 1.21176943e-01, 7.48631954e-02,
          -1.75454289e-01, 2.35087164e-02, -1.04261197e-01,
          5.01373596e-02, 9.12195370e-02, 4.61073518e-02, 1.29168078e-01,
          9.60208699e-02, -1.75141275e-01, 2.64813993e-02,
          -1.02366306e-01, 5.21538667e-02, 6.31387010e-02,
          -1.94138773e-02, 1.12574644e-01, 5.01901470e-02,
          -1.73426896e-01, 2.74797454e-02, -9.86604095e-02,
          5.67480102e-02, 4.45697084e-02, -9.03433338e-02,
          1.00459181e-01, -7.88963959e-03, -1.68580636e-01,
          3.93663459e-02, -9.23621207e-02, 6.53865561e-02,
          5.50614819e-02, -7.86018968e-02, 1.04335621e-01,
          -2.66889669e-02, -1.56350538e-01, 5.00951260e-02,
          -8.78736526e-02, 7.26940334e-02, -3.71752903e-02,
          2.04307362e-01, -3.31501961e-02, -3.31404731e-02,
          -3.36807445e-02, -3.34796868e-02, -3.36809568e-02 ]
      - [ -8.99074301e-02, -3.71182561e-01, 1.11658283e-01,
          2.92016137e-02, 3.02423667e-02, 1.74220968e-02, 1.73640661e-02,
          1.76542122e-02, 2.78913304e-02, 1.73640661e-02, 1.73640661e-02,
          1.78863145e-02, 8.68160352e-02, 1.73640661e-02, 1.73640661e-02,
          1.91629082e-02, 6.62085339e-02, 1.73640661e-02, 1.73640661e-02,
          5.57221808e-02, 1.33106858e-01, -1.60265431e-01,
          -1.13165483e-01, 1.58276800e-02, 6.37430549e-02,
          9.15372744e-04, -1.90875158e-02, -1.16414592e-01,
          2.95996573e-02, -1.16516113e-01, 2.13138014e-02,
          1.56831350e-02, 9.13591757e-02, 1.30301469e-03,
          -6.01093797e-03, -1.16590947e-01, 2.75006499e-02,
          -1.18080728e-01, 1.78358238e-02, 1.17990561e-02,
          8.57644901e-02, 3.89312766e-03, 2.51812059e-02,
          -1.33798793e-01, 5.41777443e-03, -1.24624439e-01,
          2.45415303e-03, 1.83012560e-02, 1.25695884e-01, 2.43456177e-02,
          1.44038111e-01, -1.45010933e-01, -1.48771722e-02,
          -1.30869567e-01, -1.76033750e-02, 4.78042141e-02,
          2.55144656e-01, 3.80921774e-02, 2.14317948e-01,
          -1.41089633e-01, -1.28165884e-02, -1.32002160e-01,
          -2.18433756e-02, 3.72595303e-02, 2.28433594e-01,
          3.47679071e-02, 2.07146227e-01, -1.42709315e-01,
          -1.67494528e-02, -1.28715232e-01, -1.46974353e-02,
          1.52249932e-02, 1.15592524e-01, 1.80039499e-02, 1.20405860e-01,
          -1.41910687e-01, -4.37846454e-03, -1.24577515e-01,
          -2.01044371e-03, 1.03299683e-02, 7.24916980e-02,
          2.72154156e-03, 7.12522399e-03, -1.29156709e-01,
          1.33763906e-02, -1.17802210e-01, 1.97338220e-02,
          -7.38589168e-02, 4.06733006e-01, -6.61295801e-02,
          -6.59324303e-02, -6.70736656e-02, -6.66643977e-02,
          -6.70741349e-02 ]
      - [ 1.32554758e-03, 2.79305410e-03, 2.35718787e-01,
          -1.83449388e-01, -6.10542810e-03, -5.44783100e-02,
          -2.82433070e-03, -1.47438627e-02, -1.38775576e-02,
          -2.82433070e-03, -2.82433070e-03, -2.14249431e-03,
          7.27711990e-02, -2.82433070e-03, -2.82433070e-03,
          1.27689853e-01, 9.23921019e-02, -2.82433070e-03,
          -2.82433070e-03, -2.01441143e-02, 8.22340511e-03,
          -1.85182571e-01, -4.10198681e-02, 4.74172225e-03,
          1.93683757e-03, 4.11283039e-03, -1.37893844e-03,
          -4.18695919e-02, -3.07414145e-03, -2.08064653e-02,
          1.40439924e-02, 5.68361906e-03, 9.17441957e-03, 5.58269396e-03,
          -2.16682558e-03, -4.08685468e-02, 5.74507192e-03,
          -2.07953956e-02, 1.92413684e-02, 5.29017486e-03,
          9.33553465e-03, 6.05228869e-03, 5.11379773e-03,
          -4.28032763e-02, 4.29042894e-03, -2.22416129e-02,
          1.51900956e-02, 4.64746589e-03, 1.62988547e-02, 6.39447477e-03,
          2.07024738e-02, -4.61527370e-02, -1.14080617e-02,
          -2.35100463e-02, 5.11320867e-03, 3.21537722e-03,
          3.05239521e-02, 8.75320379e-03, 5.54733463e-02,
          -4.56741154e-02, -2.34166645e-02, -2.24345997e-02,
          3.26745957e-03, 1.01334816e-02, 7.66785070e-02, 9.19536967e-03,
          6.73631877e-02, -4.63303477e-02, -2.66792718e-02,
          -2.10330263e-02, 8.96939263e-03, 6.95263781e-03,
          5.79852685e-02, 7.93366972e-03, 5.50435334e-02,
          -4.57165241e-02, -2.62654088e-02, -2.05298550e-02,
          1.27239795e-02, 2.62762350e-03, 1.55237932e-02, 4.69229557e-03,
          2.15050243e-02, -4.39877808e-02, -1.92346983e-02,
          -2.10637543e-02, 1.21891927e-02, -4.45609391e-02,
          1.08009554e-01, -9.34479106e-03, -1.29960645e-02,
          -1.35766473e-02, -1.39546581e-02, -1.35764712e-02 ]
      - [ -3.26578058e-02, -2.76578665e-01, 2.22870395e-01,
          7.55553192e-04, -9.53479612e-04, -2.67825276e-03,
          -2.69516860e-03, -2.61058938e-03, 9.82752535e-04,
          -2.69516860e-03, -2.69516860e-03, -2.54293019e-03,
          1.75454170e-02, -2.69516860e-03, -2.69516860e-03,
          -2.17079441e-03, 1.55118899e-02, -2.69516860e-03,
          -2.69516860e-03, 1.06294900e-02, 5.86290881e-02,
          1.62592176e-02, -4.12498834e-03, 3.46098654e-02,
          1.30449357e-02, 4.29565422e-02, 1.41970860e-02,
          -1.11807331e-01, 2.27584671e-02, -8.16280693e-02,
          4.56329510e-02, 3.08626350e-02, 1.83859821e-02, 4.11137566e-02,
          1.32324276e-02, -1.10215820e-01, 2.45639570e-02,
          -8.10344592e-02, 4.74055894e-02, 2.73269638e-02,
          7.13724038e-03, 3.97151075e-02, 1.39934318e-02,
          -1.12447970e-01, 2.35250928e-02, -8.13968033e-02,
          4.68516238e-02, 2.78485753e-02, 1.39111923e-02, 4.38531041e-02,
          3.96856442e-02, -1.13593563e-01, 2.19072662e-02,
          -8.27405900e-02, 4.40583825e-02, 3.90297621e-02,
          4.80155684e-02, 4.90216725e-02, 5.87582216e-02,
          -1.13655746e-01, 2.28365380e-02, -8.22828636e-02,
          4.44825031e-02, 3.42406295e-02, 4.41119932e-02, 4.76148687e-02,
          5.76935634e-02, -1.14494771e-01, 1.92332789e-02,
          -8.07941481e-02, 4.61265296e-02, 2.77933609e-02,
          1.48526495e-02, 4.28835340e-02, 3.61859575e-02,
          -1.15702212e-01, 1.91143528e-02, -7.99623057e-02,
          4.68080193e-02, 2.73864362e-02, 9.29141603e-03, 4.07254472e-02,
          1.47162741e-02, -1.13392033e-01, 2.02011168e-02,
          -8.13926458e-02, 4.68397290e-02, -2.13432778e-02,
          1.11514479e-01, -1.79025959e-02, -1.78501569e-02,
          -1.81793384e-02, -1.80596579e-02, -1.81794763e-02 ]
      - [ -1.41731560e-01, -2.13768512e-01, 2.90385097e-01,
          -9.29359812e-03, -6.93275314e-03, 1.23866322e-02,
          1.23866322e-02, 1.19899465e-02, 9.78538673e-03, 1.23866322e-02,
          1.23866322e-02, -3.82607915e-02, -1.90792941e-02,
          1.23866322e-02, 1.23866322e-02, 1.32093718e-02, 3.71543467e-02,
          1.23866322e-02, 1.23866322e-02, 3.67626431e-04, 2.94806641e-02,
          -7.69218802e-02, 1.45228691e-02, 9.83939413e-03,
          2.20584944e-02, 1.25490557e-02, 2.63628066e-02,
          -4.18427773e-02, 4.62377025e-03, -3.70147675e-02,
          -2.29970142e-02, 8.00704863e-03, 1.39382686e-02,
          1.11550372e-02, 1.16579505e-02, -3.93565446e-02,
          1.58955343e-02, -3.54567915e-02, -1.33985393e-02,
          8.41240864e-03, 2.07273997e-02, 1.07137710e-02, 1.44283855e-02,
          -3.75053026e-02, 1.84978358e-02, -3.41945402e-02,
          -1.05827805e-02, 7.66488630e-03, 2.65189651e-02,
          9.83520690e-03, 2.04005297e-02, -3.93629372e-02,
          5.47904568e-03, -3.48947272e-02, -1.77512486e-02,
          7.54166208e-03, 3.04100364e-02, 1.11696403e-02, 4.16840054e-02,
          -4.11598682e-02, -7.37856608e-03, -3.58849578e-02,
          -2.26632711e-02, 1.06666908e-02, 6.62895367e-02,
          1.33799464e-02, 6.20035864e-02, -4.25848514e-02,
          -1.28796622e-02, -3.59100550e-02, -2.24368777e-02,
          1.27675040e-02, 7.70503804e-02, 1.44226216e-02, 6.75425977e-02,
          -4.32873741e-02, -1.48503659e-02, -3.60233597e-02,
          -2.28142999e-02, 1.01476749e-02, 4.83463295e-02,
          1.37002459e-02, 5.26882485e-02, -4.33157422e-02,
          -1.05625028e-02, -3.70257013e-02, -2.54410207e-02,
          -4.02455255e-02, 9.73852649e-02, -8.69080145e-03,
          -1.18042165e-02, -1.20909112e-02, -1.24630956e-02,
          -1.20907091e-02 ]
      - [ 5.41356718e-03, -1.74704254e-01, 2.05121532e-01,
          -2.62501329e-01, 1.01448603e-01, -7.34975636e-02,
          7.40950853e-02, 7.47859478e-02, 8.28267038e-02, 7.50041828e-02,
          7.50041828e-02, 7.53160492e-02, 6.81293607e-02, 7.50041828e-02,
          7.50041828e-02, 7.60783777e-02, 1.12285884e-02, 7.50041828e-02,
          7.50041828e-02, 6.90922737e-02, -1.58208888e-02,
          -7.15506524e-02, -6.95486188e-01, 1.67667475e-02,
          1.15815550e-02, 1.79364607e-02, -2.17627757e-03,
          -9.07493681e-02, -6.83616800e-03, -6.62053302e-02,
          3.40523235e-02, 1.80603657e-02, 3.84868979e-02, 1.83591321e-02,
          1.11732008e-02, -8.90710205e-02, -4.35600197e-03,
          -6.50140643e-02, 3.59673426e-02, 1.48661621e-02,
          3.51110958e-02, 2.11962815e-02, 3.64695229e-02,
          -9.88036320e-02, -1.65212303e-02, -6.76585510e-02,
          2.77001821e-02, 2.28479970e-02, 8.34017694e-02, 3.42244096e-02,
          1.11180648e-01, -1.05916604e-01, -3.04156970e-02,
          -7.32222795e-02, 1.12359030e-02, 4.01057005e-02,
          1.47906378e-01, 4.16059457e-02, 1.40448824e-01,
          -1.04432449e-01, -2.91520655e-02, -7.59986192e-02,
          3.29275592e-03, 2.97369901e-02, 1.06689528e-01, 3.86708044e-02,
          1.27425864e-01, -1.08153231e-01, -3.51125672e-02,
          -7.56544173e-02, 5.54835703e-03, 1.71343144e-02,
          4.46415655e-02, 2.74092797e-02, 7.02954084e-02,
          -1.07753552e-01, -2.75665857e-02, -7.32158050e-02,
          1.36260428e-02, 1.24448491e-02, 1.88451484e-02, 1.77259333e-02,
          4.49641654e-03, -9.77100283e-02, -1.35581540e-02,
          -6.95333704e-02, 2.61187255e-02, -4.41041589e-02,
          2.44323418e-01, -4.08707112e-02, -3.94030027e-02,
          -4.00631279e-02, -3.98190469e-02, -4.00634073e-02 ]
      - [ -2.16489255e-01, 3.42007838e-02, 2.74733007e-01,
          1.95272341e-02, 3.60825695e-02, 1.94805581e-02, 1.94805581e-02,
          1.94805581e-02, 2.07908507e-02, 1.94805581e-02, 1.94805581e-02,
          1.99706610e-02, 3.56600620e-02, 1.94805581e-02, 1.94805581e-02,
          4.64829057e-02, 2.70287320e-02, 1.94805581e-02, 1.94805581e-02,
          5.63846752e-02, -1.67797863e-01, -7.58546814e-02,
          -2.86044627e-01, 1.43165095e-03, 1.60175934e-02,
          3.48156318e-03, 2.42688768e-02, -1.94526035e-02,
          3.65148764e-03, -2.29102354e-02, -1.86401512e-02,
          -7.40598945e-04, 8.40292126e-03, 3.65934451e-03,
          2.61502154e-02, -1.93010326e-02, 5.56873530e-03,
          -2.28541140e-02, -1.72145031e-02, 1.30352995e-03,
          2.38580331e-02, 5.04274340e-03, 3.88162732e-02,
          -2.03382634e-02, 3.01143853e-03, -2.27555912e-02,
          -1.70285925e-02, 3.99372447e-03, 4.22399305e-02,
          6.09602407e-03, 4.71630692e-02, -2.09816229e-02,
          -9.00302315e-04, -2.25780234e-02, -1.80856455e-02,
          2.70961132e-03, 2.83773690e-02, 5.09831775e-03, 3.99254784e-02,
          -2.04558559e-02, -1.07322040e-03, -2.23686844e-02,
          -1.82026140e-02, -1.17814401e-03, 1.00997873e-02,
          3.15713324e-03, 2.73708925e-02, -1.97281744e-02,
          5.55342587e-04, -2.19148137e-02, -1.67068020e-02,
          7.59874529e-04, 2.37123054e-02, 2.79098353e-03, 2.52149310e-02,
          -1.91211198e-02, 1.24213158e-03, -2.20129173e-02,
          -1.68195553e-02, 2.90997676e-04, 1.91330258e-02,
          2.64791795e-03, 2.30355505e-02, -1.87130775e-02,
          3.21888854e-03, -2.27431096e-02, -1.86783560e-02,
          -9.34553891e-03, 2.40153708e-02, -2.65692524e-03,
          -2.89919996e-03, -3.00937425e-03, -3.09502543e-03,
          -3.00933118e-03 ]
      - [ -1.01831424e+00, -1.54630795e-01, 6.84368461e-02,
          3.07075143e-01, -1.36544794e-01, 1.78842600e-02,
          1.78842600e-02, 2.23551661e-01, -3.39239180e-01,
          1.78842600e-02, 1.78842600e-02, 8.43698755e-02, 2.09621876e-01,
          1.78842600e-02, 1.78842600e-02, 1.25330672e-01, 6.34993389e-02,
          1.78842600e-02, 1.78842600e-02, 3.10489446e-01, 7.75115266e-02,
          1.78842600e-02, 1.78842600e-02, 4.09546167e-01, 3.18002164e-01,
          4.02797699e-01, 6.14768304e-02, 5.02923056e-02, 1.77558541e-01,
          -8.10196996e-02, 2.79660691e-02, 2.08586589e-01,
          -5.67051709e-01, 3.03285420e-01, -4.10002887e-01,
          -2.56350301e-02, 1.40991792e-01, -1.15352049e-01,
          2.58822087e-02, 8.28889608e-02, -1.24885070e+00,
          2.69686043e-01, -6.76868796e-01, -1.46114111e-01,
          8.32454413e-02, -1.22639306e-01, 1.39750326e-02,
          1.74377888e-01, -6.66822493e-01, 3.47726226e-01,
          -1.10897899e-01, -7.36390427e-02, 6.85575604e-02,
          -9.87334922e-02, 2.78132893e-02, 4.20759380e-01,
          5.97919643e-01, 4.35154945e-01, 3.20819259e-01, 8.52571335e-03,
          1.46574736e-01, -6.02458678e-02, 4.89939228e-02,
          2.38626018e-01, -3.79484683e-01, 4.19545859e-01,
          2.03817725e-01, -1.10714249e-01, 3.70775089e-02,
          -8.42490792e-02, 3.18465084e-02, 1.32956445e-01,
          -9.69953775e-01, 3.39849830e-01, -3.75114530e-01,
          -1.72360539e-01, 5.90187013e-02, -1.30745068e-01,
          -6.97668409e-03, 2.43495658e-01, -4.16592002e-01,
          3.55460346e-01, -1.49528846e-01, -4.36789989e-02,
          1.09085403e-01, -1.15580037e-01, 1.46673964e-02,
          -6.07466437e-02, 9.28551555e-01, -1.40121937e-01,
          -1.80173680e-01, -1.82435349e-01, -1.82639986e-01,
          -1.82434216e-01 ]
      - [ -1.53749064e-01, -3.25922742e-02, 1.23148128e-01,
          1.94446426e-02, -1.93490814e-02, -1.88809913e-02,
          -1.88809913e-02, 1.23051712e-02, -1.81004554e-02,
          -1.88249126e-02, -1.88809913e-02, 9.49662551e-02,
          7.12635368e-03, 5.93797071e-03, -1.88809913e-02,
          3.67719889e-01, -1.20060807e-02, 1.30032778e-01,
          -1.88809913e-02, 2.71676540e-01, -2.46993124e-01,
          -2.69408882e-01, -1.66928977e-01, 4.06141616e-02,
          8.02806839e-02, 2.88012251e-02, 4.47501838e-02,
          -2.34750751e-02, -4.62372415e-03, -6.96740439e-03,
          -2.75757676e-03, 1.23791909e-02, -6.34989876e-04,
          2.23042239e-02, 2.50843111e-02, -1.49343787e-02,
          2.77546491e-03, -7.94066023e-03, -2.90328986e-03,
          -3.92292673e-03, -6.74824268e-02, 7.84975942e-03,
          -3.77117991e-02, -2.89701810e-03, 1.52298370e-02,
          -1.10975523e-02, -5.57733234e-03, 4.93693817e-03,
          -3.89870107e-02, 1.50777837e-02, -5.60728088e-03,
          -1.01953102e-02, 7.41134351e-03, -7.99276028e-03,
          -1.94923219e-03, 3.06257345e-02, 5.04311658e-02,
          1.93980504e-02, 1.00060450e-02, -1.51386354e-02,
          3.40305967e-03, -4.73751640e-03, 3.03978799e-03,
          1.00106020e-02, -1.73379760e-02, 1.63263958e-02,
          1.67905982e-03, -9.22541413e-03, 6.61042053e-03,
          -6.30994467e-03, -2.07527599e-04, -2.39517563e-03,
          -6.74342141e-02, 7.38799758e-03, -4.41607386e-02,
          3.01048538e-04, 1.81402583e-02, -1.02110310e-02,
          -6.22872589e-03, 2.00780644e-03, -4.85135987e-02,
          1.79779381e-02, 3.24338325e-03, -1.01165725e-02,
          6.83388300e-03, -9.22991708e-03, -6.01305300e-03,
          1.95591274e-04, 1.66757056e-03, -1.24515477e-03,
          -2.19202993e-04, -1.33981855e-04, -1.30921166e-04,
          -1.33899826e-04 ]
      - [ -4.24312502e-01, -4.03710678e-02, -2.70961560e-02,
          1.60012811e-01, 2.06123758e-02, -1.01128649e-02,
          -1.01128649e-02, 9.67657939e-02, -2.78152782e-03,
          -1.01089878e-02, -1.01128649e-02, 3.18861566e-02,
          2.45483443e-02, -8.39667674e-03, -1.01128649e-02,
          7.35398084e-02, -8.24409351e-03, 1.84263437e-04,
          -1.01128649e-02, 1.71310008e-01, -8.49084370e-03,
          1.16850287e-02, -1.01782596e-02, 1.27071217e-01,
          -2.10142478e-01, 2.39217132e-01, -2.19823346e-02,
          -1.51803285e-01, 5.67173846e-02, 2.61052344e-02,
          1.42310351e-01, 9.78154242e-02, -2.95196444e-01,
          2.27821290e-01, -5.64997196e-02, -1.59694389e-01,
          5.39824180e-02, 2.47210637e-02, 1.45085156e-01, 8.00091028e-02,
          -3.67941767e-01, 2.13406071e-01, -1.15955755e-01,
          -1.62202433e-01, 5.94136417e-02, 3.22033130e-02,
          1.51102453e-01, 8.47203657e-02, -3.06625515e-01,
          2.05621138e-01, -1.16672248e-01, -1.29197359e-01,
          6.62729964e-02, 2.87045743e-02, 1.46149278e-01, 1.16177164e-01,
          -2.22246811e-01, 2.13434845e-01, -8.83566663e-02,
          -1.27809286e-01, 6.38746992e-02, 2.61659455e-02,
          1.44185901e-01, 7.59300143e-02, -3.18752646e-01,
          2.00886518e-01, -1.21505089e-01, -1.42291248e-01,
          5.70874922e-02, 2.35992894e-02, 1.43367827e-01, 7.81556591e-02,
          -3.52294058e-01, 2.01572761e-01, -1.40709534e-01,
          -1.59226716e-01, 5.71583919e-02, 2.45338455e-02,
          1.43509701e-01, 8.18470046e-02, -3.17901134e-01,
          2.16987103e-01, -7.58526921e-02, -1.41816854e-01,
          6.08108118e-02, 2.32902244e-02, 1.41651466e-01,
          -2.26971582e-02, 1.97366044e-01, -3.43659818e-02,
          -3.51599120e-02, -3.50482315e-02, -3.50465588e-02,
          -3.50482203e-02 ]
      - [ 6.05994314e-02, -1.34185648e+00, 4.74777631e-02,
          1.09928131e-01, -6.32100701e-02, 6.21979199e-02,
          6.21979199e-02, 8.01645070e-02, -2.29117852e-02,
          6.22039996e-02, 6.21979199e-02, 8.31468776e-02, 1.03517532e-01,
          6.48887157e-02, 6.21979199e-02, 1.88646942e-01, 8.14089626e-02,
          7.83426911e-02, 6.21979199e-02, 3.88724804e-01, 6.58149570e-02,
          -1.88995942e-01, -1.08881436e-01, -3.99489254e-02,
          1.61972970e-01, -8.85735601e-02, -3.30963954e-02,
          1.57225758e-01, -3.83981429e-02, 1.11394949e-01,
          -1.72402076e-02, -4.73357588e-02, -3.62174027e-02,
          -9.73810330e-02, -1.47608221e-01, 1.16562359e-01,
          -6.62040636e-02, 8.64464641e-02, -2.83897910e-02,
          -7.78172687e-02, -2.14521766e-01, -9.15662274e-02,
          -2.15705335e-01, 6.79911897e-02, -8.92725959e-02,
          6.39467612e-02, -5.32294549e-02, 4.72554378e-03,
          1.45951882e-01, -4.34049778e-02, 7.51550347e-02,
          7.46795759e-02, -1.20980896e-01, 7.01956004e-02,
          -5.84857576e-02, 5.40373251e-02, 5.30408502e-01,
          -2.65902746e-02, 1.97494745e-01, 1.33576617e-01,
          -6.50070235e-02, 8.09836239e-02, -6.02840185e-02,
          -4.96013882e-03, 1.43253312e-01, -3.20097916e-02,
          1.41061828e-01, 7.95359537e-02, -1.18553549e-01,
          7.14883506e-02, -6.14698790e-02, -6.92859516e-02,
          -1.31095976e-01, -8.45947415e-02, -1.47422805e-01,
          5.29177338e-02, -1.02983944e-01, 6.70730323e-02,
          -5.59242219e-02, -4.62518744e-02, -2.45417957e-03,
          -8.87549222e-02, -6.36141151e-02, 1.02464534e-01,
          -8.28265324e-02, 8.81268978e-02, -2.92077623e-02,
          -5.04301637e-02, 6.18953049e-01, -1.09751597e-01,
          -1.14384688e-01, -1.14782847e-01, -1.14820912e-01,
          -1.14782818e-01 ]
      - [ -6.69826642e-02, 6.25212938e-02, 2.25014299e-01,
          -1.76547185e-01, -1.98092032e-02, -1.32708088e-01,
          -1.44156255e-02, -1.81678813e-02, -2.56898068e-02,
          -1.43676391e-02, -1.44156255e-02, 7.47491866e-02,
          -6.73276931e-03, 6.82185125e-03, -1.44156255e-02,
          3.13834786e-01, -1.43416710e-02, 1.13009229e-01,
          -1.44156255e-02, -2.74959505e-01, -4.02904861e-02,
          1.75992787e-01, -1.23684071e-01, 3.88913602e-03,
          6.36650994e-02, -1.58291366e-02, 2.39071101e-02,
          3.27727683e-02, -5.02977101e-03, 3.24423201e-02,
          1.49737410e-02, -1.72602590e-02, 1.76723581e-03,
          -2.03959662e-02, 9.22734663e-03, 3.93951237e-02,
          1.42715045e-03, 3.24633718e-02, 1.04986848e-02,
          -3.42725255e-02, -6.93131685e-02, -3.53684872e-02,
          -4.62008044e-02, 5.32834455e-02, 1.42149953e-02,
          3.21747176e-02, 7.49302329e-03, -3.67481560e-02,
          -6.99611455e-02, -3.53967175e-02, -3.37468348e-02,
          5.05140163e-02, 1.34186149e-02, 3.71123254e-02, 1.26562817e-02,
          -2.54010838e-02, -1.44276368e-02, -3.38558666e-02,
          -2.47429311e-02, 4.91262861e-02, 1.58681627e-02,
          4.05766331e-02, 1.78904142e-02, -2.54363399e-02,
          -3.66633087e-02, -3.17634232e-02, -2.55058128e-02,
          4.81769554e-02, 1.37586836e-02, 3.88279930e-02, 2.08693314e-02,
          -3.29225622e-02, -7.34376311e-02, -3.50003354e-02,
          -6.05840497e-02, 5.50006330e-02, 2.08847914e-02,
          3.28114815e-02, 1.81088299e-02, -2.71917284e-02,
          -5.11791855e-02, -2.45479122e-02, -1.71375144e-02,
          4.43989411e-02, 7.74036348e-03, 3.17458287e-02, 1.62384044e-02,
          2.00683670e-03, -2.21010018e-02, 3.61202681e-03,
          4.02791705e-03, 4.16317862e-03, 4.12773481e-03, 4.16330853e-03 ]
      - [ -3.96412551e-01, -7.12814108e-02, 1.85643464e-01,
          2.11179972e-01, -6.32113367e-02, -5.94218560e-02,
          -5.94218560e-02, 1.13743715e-01, -5.67074008e-02,
          -5.93993738e-02, -5.94218560e-02, 3.82900052e-02,
          -2.46101841e-02, -4.94728312e-02, -5.94218560e-02,
          1.77124098e-01, -5.95096350e-02, 2.72284000e-04,
          -5.94218560e-02, 3.26805651e-01, -1.20840311e-01,
          2.30317220e-01, -8.48222077e-02, 1.21062703e-01,
          -1.43550709e-01, 1.77233875e-01, -9.96361822e-02,
          -1.45958096e-01, -1.62353572e-02, 6.56017512e-02,
          2.22578689e-01, 9.54475701e-02, -2.56233573e-01,
          1.74370557e-01, -1.26916632e-01, -1.58792108e-01,
          -2.03904193e-02, 5.21554910e-02, 2.15710297e-01,
          7.36033320e-02, -3.50748181e-01, 1.68887779e-01,
          -1.80118844e-01, -1.62445635e-01, -1.16722528e-02,
          3.97562981e-02, 2.12174505e-01, 1.09226063e-01,
          -2.24491104e-01, 1.84876531e-01, -1.09542154e-01,
          -1.63106754e-01, -1.69257186e-02, 2.92626899e-02,
          2.04972476e-01, 1.40765384e-01, -9.55312178e-02,
          2.02407315e-01, -4.50649895e-02, -1.75404802e-01,
          -2.53346544e-02, 3.33025791e-02, 2.07700849e-01,
          1.11467905e-01, -2.06756562e-01, 1.87629014e-01,
          -9.73025188e-02, -1.76673070e-01, -2.44529638e-02,
          4.21081632e-02, 2.15765074e-01, 7.15454891e-02,
          -3.37096334e-01, 1.58654317e-01, -2.05230981e-01,
          -1.57268897e-01, -7.59613747e-03, 5.99181727e-02,
          2.27311030e-01, 7.36099333e-02, -2.98929036e-01,
          1.63016573e-01, -1.46795094e-01, -1.36140883e-01,
          -1.08463624e-02, 6.53484687e-02, 2.25716963e-01,
          -3.35874520e-02, 3.63338679e-01, -6.39332980e-02,
          -6.64313361e-02, -6.64617717e-02, -6.64631203e-02,
          -6.64617568e-02 ]
      - [ -1.48133159e-01, -1.85172141e-01, 2.52236187e-01,
          -4.33347235e-03, -2.32775584e-02, 3.35590215e-03,
          3.35590215e-03, 7.18145538e-03, -4.22402704e-03,
          3.38129490e-03, 3.35590215e-03, 2.43212115e-02,
          -6.88837841e-02, 1.45940399e-02, 3.35590215e-03,
          1.19139083e-01, -8.96114707e-02, 7.07847327e-02,
          3.35590215e-03, -2.06529364e-01, -4.64054793e-02,
          2.63547778e-01, 4.60514845e-03, 1.05116880e-02, 5.53745702e-02,
          2.00669561e-03, 3.20561491e-02, -2.36010901e-03,
          -1.06065702e-02, 1.40690953e-02, 5.42104663e-03,
          -2.61802925e-03, 9.90200508e-03, -1.93895877e-03,
          1.60517488e-02, 4.75544570e-04, -7.97087885e-03,
          1.39708724e-02, 6.24245824e-03, -1.35471476e-02,
          -3.25993262e-02, -1.09725324e-02, -2.12254133e-02,
          8.82077962e-03, 4.08282503e-04, 1.43291764e-02, 6.41948963e-03,
          -1.23331808e-02, -2.50649080e-02, -1.23787355e-02,
          -1.89864691e-02, 8.83100927e-03, 1.15265233e-04,
          1.73081383e-02, 7.83500262e-03, -1.09760286e-02,
          -4.56362916e-03, -1.25068342e-02, -1.56082092e-02,
          1.09794047e-02, 2.55092443e-03, 1.92911532e-02, 8.42000917e-03,
